{
  "Layer_0": {
    "weights": [
      [-0.498749, -0.451537, -0.320734, 0.180776, 0.115558, 0.446532, 0.161977, 0.400632, -0.42346, -0.495758, -0.476409, -0.375118, -0.426298, 0.0361797, -0.29635, 0.418058, 0.296533, -0.14333, 0.14156, -0.155477, 0.434385, 0.280267, -0.223228, 0.468841, 0.176778, 0.121387, 0.0487228, 0.355373, 0.213157, -0.305567, -0.103107, 0.0685904, -0.267022, -0.186056, -0.23928, -0.327052, 0.425718, -0.205679, -0.420347, -0.267052, 0.480743, 0.450041, -0.206809, 0.313013, -0.412412, 0.0955382, 0.340754, -0.0224464, -0.0643178, -0.454772, -0.338252, -0.208945, 0.214499, 0.113666, -0.304315, 0.318018, -0.386563, -0.384762, -0.117969, -0.377194, -0.177999, 0.364406, 0.160176, 0.269951, 0.0296182, 0.175619, -0.0303812, 0.323847, -0.0742363, 0.363338, 0.24984, 0.348994, -0.300134, -0.258019, 0.440214, 0.409818, 0.0413984, -0.373928, 0.480255, 0.0707572, 0.13979, -0.170003, -0.190634, 0.396298, -0.315485, -0.331751, 0.367061, -0.0491195, -0.134968, -0.0446944, -0.407254, -0.201041, 0.370785, 0.00553911, 0.425932, -0.495025, 0.391232, -0.366543, 0.305994, 0.133412],
      [0.0635853, -0.153859, -0.0180822, 0.140797, -0.333674, 0.201132, 0.311426, 0.112415, -0.106983, -0.258965, 0.168172, -0.265221, -0.324793, -0.477447, -0.266259, 0.3146, 0.444639, 0.102313, -0.310144, -0.341578, 0.132862, -0.463103, 0.218131, 0.0729545, 0.17156, 0.383023, 0.00019837, 0.364803, 0.49237, -0.302759, 0.217673, -0.159383, -0.473083, 0.0363018, -0.447783, 0.307062, 0.2069, 0.456786, 0.185507, 0.0707266, -0.0361187, -0.48468, -0.200888, -0.0617237, -0.27044, 0.268578, -0.42526, 0.216391, -0.0644704, 0.273186, 0.194021, -0.288354, -0.486541, -0.414243, -0.161458, -0.26928, -0.104968, -0.237022, 0.189993, 0.0802484, 0.0117954, -0.138508, 0.430021, 0.0668813, 0.295465, 0.437895, 0.240226, 0.497253, -0.322382, -0.45117, -0.197745, -0.322047, -0.410062, -0.248985, -0.202231, 0.415708, -0.0359355, 0.101001, 0.408444, 0.0171056, 0.231651, 0.155477, 0.315851, 0.288812, 0.324305, -0.0289468, -0.298364, -0.462584, -0.32635, 0.104389, 0.24749, -0.430387, 0.211417, -0.387875, 0.135029, -0.307947, 0.369137, 0.0509201, 0.0458541, -0.288659],
      [-0.306696, -0.481445, -0.0279092, 0.450682, 0.329554, 0.0875423, 0.431974, 0.423643, -0.398129, 0.109546, -0.182028, 0.452147, -0.284661, 0.414579, -0.414792, -0.383786, 0.375088, 0.332759, -0.311304, 0.496002, -0.213889, -0.305872, -0.41644, 0.171529, -0.346431, -0.171194, 0.224876, 0.222892, 0.182485, -0.433164, 0.0676748, -0.26986, 0.0779595, 0.238365, 0.0670949, 0.2734, -0.454955, -0.326624, -0.321863, -0.0672781, 0.288903, 0.202017, -0.144032, 0.288171, -0.485534, -0.345668, 0.0556505, 0.419889, -0.0730461, 0.360408, 0.2322, -0.0921506, -0.268639, 0.150319, -0.159261, -0.167806, -0.367183, 0.354152, -0.163656, -0.226981, -0.163656, -0.198019, -0.325922, -0.189627, 0.0470748, -0.176107, 0.309076, -0.475646, 0.470061, 0.249931, 0.19631, -0.00498978, -0.189627, 0.410245, 0.290948, -0.197562, 0.273095, 0.134816, 0.0480514, 0.026719, -0.436705, -0.246208, 0.422666, 0.247917, -0.11391, 0.0972472, -0.130116, -0.453887, -0.0534532, 0.495239, 0.344813, -0.498596, -0.0503098, -0.22219, 0.302484, 0.193869, -0.39935, 0.27514, -0.301996, 0.203543],
      [0.308741, 0.478423, 0.19924, 0.0622425, -0.277184, -0.474181, 0.130634, 0.136006, -0.294824, 0.190878, -0.239799, 0.0197913, -0.35934, -0.0166784, -0.277276, 0.473357, 0.413968, -0.0870846, 0.153005, -0.243583, 0.409879, 0.489441, -0.314264, -0.371212, -0.486908, -0.277367, 0.455748, 0.350276, 0.108539, 0.122272, 0.0977355, -0.319483, 0.0808283, -0.301874, -0.253502, -0.120563, -0.185202, -0.040025, 0.0368511, -0.293329, 0.195181, -0.0824152, 0.103504, 0.422056, -0.393216, 0.0807062, -0.41879, -0.214682, -0.0656606, 0.459075, -0.395199, 0.0562609, -0.437376, -0.437498, -0.191, -0.005356, 0.3764, 0.400754, 0.328578, -0.139821, -0.239555, 0.483581, -0.201743, 0.412717, -0.40051, -0.179281, 0.35287, -0.0880612, 0.278375, -0.0780206, -0.37286, 0.117664, -0.318262, -0.202902, -0.244133, 0.289666, 0.19451, -0.0441145, 0.373806, 0.187674, -0.2987, 0.408078, -0.384304, 0.0714591, -0.413022, -0.336604, 0.116352, -0.299219, -0.263756, -0.268303, 0.0104831, 0.335475, -0.466094, 0.122669, -0.0671255, -0.264824, -0.135243, -0.15389, 0.0182958, 0.15981],
      [0.0850093, 0.147633, -0.251396, -0.22869, -0.0943175, -0.226676, 0.0525071, -0.396878, -0.408292, -0.383572, -0.167867, 0.0752434, -0.011124, 0.147725, 0.183218, -0.0916318, 0.442808, 0.337855, -0.298547, 0.323206, -0.200735, -0.342463, 0.482574, 0.0404218, 0.403928, 0.0775018, 0.122211, 0.280755, 0.102496, 0.0684072, -0.283898, -0.23513, 0.240654, -0.399045, -0.140034, -0.286462, -0.335841, 0.145894, -0.35049, -0.152577, -0.281335, -0.326106, -0.319575, 0.387265, 0.249931, -0.344325, 0.0484176, 0.0536668, -0.396451, 0.0619373, 0.349208, 0.0674306, -0.37463, 0.363369, -0.321558, 0.14922, -0.339015, -0.469329, -0.36813, -0.480285, -0.443846, 0.0345927, 0.3052, -0.100299, -0.34344, -0.154225, 0.294092, -0.490204, -0.192099, 0.434996, -0.305719, 0.0707572, 0.355892, -0.227165, 0.101489, -0.196768, 0.146229, 0.330134, -0.388638, 0.428007, -0.475402, 0.0775323, -0.180319, 0.1657, 0.336756, 0.485717, -0.177908, -0.262963, -0.0716727, -0.474609, 0.214316, 0.362758, 0.1451, -0.332698, 0.0920286, -0.236473, 0.332728, -0.117878, 0.0509507, 0.160054],
      [-0.020127, -0.446348, 0.436705, 0.0101779, 0.235466, 0.278954, 0.137135, 0.261589, 0.18395, 0.14095, -0.300623, 0.381161, 0.288202, -0.272454, -0.163656, 0.206778, -0.488922, 0.126698, -0.239067, 0.0763726, 0.315577, -0.073809, 0.185995, -0.172201, -0.335536, 0.214011, 0.324458, -0.201041, 0.0207068, -0.422025, -0.110797, -0.172262, 0.347163, 0.106067, 0.0930967, 0.252068, 0.106738, 0.386074, -0.350948, -0.0902585, 0.262322, -0.494079, -0.230033, 0.138752, 0.276788, 0.0535447, 0.168722, -0.223045, 0.113025, 0.11681, 0.0582141, 0.162221, 0.23397, 0.283593, 0.151296, 0.132466, -0.397549, -0.358272, -0.339106, 0.0255593, -0.318598, -0.220756, 0.299921, -0.320612, 0.433714, -0.216086, 0.281243, 0.431913, 0.32226, 0.243706, 0.317743, 0.12093, 0.309931, 0.246452, -0.377712, 0.0843684, -0.1404, 0.380062, -0.0921812, 0.160115, -0.0658132, -0.267602, 0.387204, -0.313959, -0.00340281, -0.10857, -0.226676, -0.499908, 0.00965911, -0.0550096, 0.279107, -0.0598621, 0.436369, 0.480987, -0.382626, -0.155934, 0.239494, -0.412748, 0.00111393, -0.450285],
      [-0.149709, 0.414151, -0.222556, -0.297357, 0.212058, -0.287408, 0.121143, -0.0108493, -0.372036, 0.233695, 0.0121616, 0.303949, -0.290582, 0.213767, 0.311853, 0.133351, -0.43231, 0.389126, 0.381558, 0.463713, -0.185873, -0.00392163, 0.0825373, -0.21865, -0.43994, -0.229026, -0.223807, 0.0726188, 0.416807, -0.0498215, 0.323878, -0.176199, 0.495697, 0.269951, 0.0868099, 0.0212561, 0.408048, -0.0333415, -0.0735954, 0.151326, 0.265221, -0.22335, 0.20397, 0.200308, -0.321497, -0.0637989, -0.219169, -0.345485, -0.240776, 0.181692, 0.0182958, -0.499695, 0.118793, -0.250603, -0.222282, 0.224052, -0.131581, 0.375698, 0.420438, -0.188009, -0.38049, 0.296899, -0.192282, -0.249504, 0.483398, 0.24929, 0.300989, 0.0259255, 0.071337, 0.469268, -0.238517, 0.124531, 0.49472, -0.306879, -0.449431, 0.0327006, 0.364864, 0.157186, -0.470428, 0.236747, -0.206931, -0.402219, 0.0598621, -0.277001, 0.390713, 0.251274, 0.00270089, -0.0222327, 0.269097, -0.146077, -0.280572, -0.0125889, 0.0395062, -0.357875, 0.0713981, 0.238243, -0.186666, 0.352199, 0.41995, -0.28341],
      [0.395962, 0.137471, -0.200461, 0.375973, 0.0811945, -0.0244911, -0.410215, -0.449309, 0.205496, 0.247246, 0.339625, -0.257897, -0.0651723, 0.243614, 0.464995, 0.491241, -0.0647755, -0.244316, -0.118091, -0.161, 0.372707, 0.0744804, 0.00645466, 0.326533, -0.0867183, -0.00901822, -0.245415, -0.00520341, -0.277032, -0.203787, -0.457671, 0.384793, 0.467803, 0.281243, 0.28573, -0.462462, 0.313746, -0.262993, 0.400754, -0.00590533, -0.0731376, -0.0454268, -0.196554, -0.20455, 0.473174, 0.224967, -0.0901669, 0.482604, -0.381375, 0.339137, -0.364071, 0.0965758, -0.470672, -0.411863, 0.397732, 0.178396, -0.128773, -0.236991, 0.111255, -0.230949, -0.189627, 0.154775, 0.192526, 0.409635, 0.012772, -0.445616, -0.442473, 0.141072, -0.355556, 0.252922, -0.377651, -0.495605, 0.371395, 0.0413373, 0.302942, -0.459349, 0.359645, 0.210685, 0.0153356, -0.209128, 0.275201, -0.448027, -0.324427, 0.296045, 0.284112, 0.356258, -0.300378, -0.40286, 0.052324, 0.414487, 0.00355541, -0.264763, -0.254082, 0.0176855, 0.00334178, 0.251366, 0.0309, -0.0430769, -0.385006, 0.186453],
      [0.32284, -0.0682852, 0.322443, -0.330134, 0.486694, -0.251457, 0.0189367, -0.425779, -0.471221, -0.0402997, 0.0321207, 0.12392, -0.0489669, -0.307855, 0.11391, -0.304132, -0.244621, -0.427183, -0.483673, 0.167013, 0.443846, -0.271325, -0.00871303, -0.0856807, 0.0182958, -0.21334, -0.20925, -0.185263, -0.0192419, -0.12624, -0.333338, 0.245231, 0.333125, -0.383114, -0.129017, 0.0827509, -0.422636, 0.143025, 0.15569, -0.29577, -0.284539, 0.0790887, -0.227348, -0.0133518, 0.249382, -0.447935, 0.473937, 0.30694, 0.18099, 0.188925, -0.488617, -0.457976, 0.0123142, 0.116565, -0.362941, 0.0689566, -0.254723, -0.0380108, 0.102863, -0.235405, -0.118152, -0.147908, -0.33929, 0.00593585, 0.424009, 0.413907, -0.437407, -0.330073, -0.126362, -0.2257, -0.439543, 0.133534, 0.232749, -0.439695, -0.0937071, 0.273675, 0.00325022, -0.101184, 0.352016, 0.467315, 0.187155, 0.416837, 0.149556, -0.408597, 0.28637, 0.241264, 0.0509201, 0.0229041, 0.30285, -0.000900296, 0.308008, -0.361232, -0.261467, -0.18276, -0.327204, -0.184011, -0.404569, 0.322718, 0.397275, 0.431455],
      [0.246605, -0.478942, 0.319636, -0.350978, -0.497711, 0.483917, 0.434568, 0.0562609, -0.462554, 0.177847, 0.0134739, 0.441679, -0.153829, 0.222007, -0.199484, -0.325648, 0.422605, -0.264458, 0.0398419, 0.123524, -0.239128, 0.33758, 0.475616, -0.341762, -0.144856, 0.147267, 0.351924, -0.352351, 0.199545, -0.216269, 0.412931, -0.0390179, -0.211814, 0.366146, -0.0972472, -0.0327311, 0.115253, -0.486389, -0.434416, -0.464293, 0.174886, 0.345332, -0.354457, 0.0354472, 0.461211, 0.480377, -0.113239, 0.335597, -0.031663, 0.0378887, -0.466643, -0.194723, 0.190481, -0.362941, 0.329554, 0.313715, 0.121723, 0.397, -0.480621, 0.229972, 0.256218, -0.0631581, -0.152944, 0.423215, -0.411924, 0.37579, -0.443327, 0.262566, -0.388516, 0.332881, 0.392453, -0.382809, 0.320612, -0.0726798, -0.401608, -0.143757, 0.209525, -0.221763, -0.0811945, -0.151173, 0.272393, 0.00477615, -0.40231, -0.0358745, 0.0033723, 0.226096, 0.379299, 0.0712149, 0.396573, -0.438719, -0.49237, -0.460723, -0.0538499, -0.370479, -0.273003, 0.23748, -0.353725, -0.450072, 0.281426, -0.465087],
      [-0.325892, -0.257408, 0.129902, 0.222098, 0.446196, 0.39523, -0.0467391, 0.420438, -0.362239, 0.112384, 0.142476, -0.0579089, -0.233543, 0.0366985, 0.465056, 0.179678, -0.150166, -0.189291, 0.18862, 0.0257729, 0.405484, -0.422971, 0.0807367, -0.127064, 0.450987, -0.0218055, 0.409024, -0.386258, -0.496124, 0.156819, -0.0590381, -0.359188, -0.41821, -0.24456, -0.0557726, -0.15331, 0.202322, -0.0833003, 0.186361, -0.376064, 0.382992, 0.283105, -0.0650502, -0.134846, -0.358638, -0.00273141, -0.042436, -0.0370952, -0.00492874, -0.298242, -0.478271, -0.190207, -0.038316, -0.460814, 0.395169, -0.201621, -0.441282, 0.152089, -0.154714, -0.178762, 0.303858, -0.31695, -0.360225, 0.270989, 0.214621, -0.225333, 0.0461898, 0.0401166, -0.191458, -0.430509, -0.167928, -0.478729, 0.10329, -0.28985, 0.265038, -0.392941, -0.383633, 0.339198, 0.112659, -0.310022, 0.365413, 0.0991699, -0.357509, -0.337336, -0.132038, 0.132679, -0.377865, -0.0823237, 0.141621, 0.0823237, 0.319178, 0.347591, -0.296075, 0.0906552, -0.49884, 0.344966, -0.427519, -0.199759, 0.435728, -0.197592],
      [0.358943, -0.108051, 0.295068, 0.191519, 0.0813776, -0.0331889, -0.0231483, -0.00746178, 0.271813, 0.074572, 0.287744, 0.0500961, 0.377438, -0.212516, -0.0750298, 0.186483, 0.345607, 0.177877, 0.0858333, -0.276116, -0.376522, -0.182058, 0.46762, 0.48468, 0.158437, -0.220023, 0.26751, -0.208945, 0.397671, -0.363735, 0.182852, 0.4653, 0.288446, 0.459075, 0.410916, -0.170339, 0.278039, -0.179434, -0.351131, -0.293573, 0.313746, -0.206839, 0.0941038, 0.417905, -0.157216, -0.0509812, 0.443815, -0.213767, -0.187551, 0.360469, -0.104755, 0.133808, -0.330012, -0.400296, 0.145741, 0.28283, 0.362728, -0.260949, 0.392514, -0.444426, 0.337855, 0.350795, 0.33282, -0.2257, -0.457366, -0.49292, 0.16393, 0.261315, 0.424406, -0.219687, -0.416898, -0.161184, -0.069628, 0.242698, -0.212333, -0.170888, -0.492187, 0.466521, 0.474853, 0.0544908, 0.104022, -0.476012, -0.158101, -0.162832, 0.16625, -0.0125584, -0.413938, -0.000564592, -0.358303, -0.0709098, -0.0953246, -0.136464, -0.0222633, -0.0787835, 0.494964, 0.251793, 0.12157, 0.0361187, -0.44586, 0.486419],
      [0.210501, 0.154012, -0.492798, 0.0568102, -0.0414289, -0.137562, 0.0374615, 0.496918, 0.123066, -0.207541, -0.499268, 0.487701, 0.362178, 0.227317, -0.194754, -0.437651, -0.165883, -0.049852, 0.359188, -0.245872, 0.197104, 0.244194, 0.0707572, -0.403775, -0.390713, -0.107379, 0.34814, 0.121845, -0.271081, 0.178701, 0.0995666, -0.135853, -0.285791, -0.11446, -0.266778, -0.143605, 0.223319, 0.296472, 0.157369, -0.368252, 0.414487, 0.194571, -0.219901, 0.223441, -0.0540941, -0.136891, -0.490295, 0.164632, -0.024247, 0.0852535, -0.245628, 0.488556, 0.162282, 0.144246, 0.42233, -0.271599, -0.33636, -0.176717, -0.0782952, -0.0825983, 0.138081, 0.405545, 0.160726, -0.411283, -0.256218, -0.32577, -0.452361, -0.224387, 0.138966, -0.0874203, -0.00938444, 0.0112156, 0.481811, -0.0962096, -0.10213, 0.328791, 0.430509, -0.0689871, 0.177602, 0.261528, 0.1433, -0.222495, 0.237999, -0.15743, 0.278344, -0.273553, -0.0127415, -0.394803, -0.00611896, -0.438932, -0.166372, -0.417417, -0.0518662, -0.435484, -0.314722, 0.307947, 0.299249, -0.479949, -0.0495773, -0.185537],
      [0.013535, 0.281884, -0.239036, 0.12215, -0.0707266, 0.263787, 0.349696, 0.17864, 0.134816, -0.380062, -0.321619, -0.377926, -0.344478, -0.499237, 0.0224769, -0.147084, 0.016831, -0.443358, 0.157369, -0.228538, 0.244133, -0.0619984, 0.358425, -0.221824, -0.137226, 0.29519, 0.401028, -0.226585, -0.101825, -0.221427, -0.439451, 0.157582, -0.124287, 0.0386212, -0.387539, -0.168935, -0.179189, 0.225639, -0.167928, 0.194266, 0.258843, -0.00993377, -0.00517289, 0.147542, 0.215171, 0.482299, 0.376125, 0.0912961, 0.215201, 0.352718, -0.248741, -0.0740532, 0.284356, -0.248314, 0.395749, 0.0518662, -0.0520188, 0.329646, 0.0848872, 0.369442, 0.231498, 0.23693, 0.0941038, 0.279046, -0.339747, 0.123951, 0.198813, -0.318934, 0.259728, 0.141133, -0.325678, -0.0240333, -0.444792, -0.0611744, 0.296136, 0.0640736, -0.427854, -0.332575, 0.339595, 0.34582, -0.164083, -0.02266, -0.41998, -0.278497, 0.371944, 0.0189673, 0.292932, -0.408383, -0.294458, 0.442686, 0.253624, -0.143483, -0.137837, 0.398862, -0.262505, -0.0834223, 0.367183, -0.462096, -0.48001, -0.327784],
      [-0.196005, -0.477172, -0.210471, 0.49646, -0.141774, -0.463225, -0.233757, 0.478057, 0.425901, 0.310724, -0.0942259, 0.181539, 0.430754, 0.39346, 0.381954, 0.405759, 0.296686, -0.166158, -0.131428, 0.449522, -0.0525071, 0.180715, -0.460479, 0.111682, -0.192953, 0.482879, 0.0686209, -0.308985, -0.200888, 0.289178, -0.370357, -0.013535, 0.347591, -0.351619, -0.103504, 0.296747, 0.376247, 0.109424, 0.0429548, 0.420713, 0.308954, -0.278954, -0.257164, -0.342799, 0.0694754, 0.0321512, 0.170003, -0.194937, 0.0817133, 0.0914792, -0.00175481, 0.163137, 0.269463, 0.447935, 0.401456, -0.469848, 0.0565661, 0.150319, 0.0533921, 0.205069, 0.366817, -0.252586, 0.127918, -0.0133824, -0.375942, 0.288141, 0.298883, 0.173666, -0.247856, 0.321253, -0.259972, -0.434965, 0.174917, -0.104419, 0.125294, 0.459593, -0.183889, -0.440031, -0.371548, -0.343928, 0.0996582, 0.363308, -0.0766778, 0.453398, -0.050676, -0.14568, 0.183767, -0.349696, -0.211051, 0.0818964, 0.0835749, -0.454283, -0.45761, -0.405179, -0.203421, -0.0615711, -0.366543, 0.442015, -0.00334178, 0.127277],
      [-0.485015, 0.326044, 0.452971, 0.499939, 0.104297, -0.438414, 0.450621, 0.258324, 0.00489822, -0.131275, -0.18865, 0.202597, 0.445433, -0.399014, 0.0137486, -0.0637684, 0.154286, -0.388119, 0.0362407, -0.437254, 0.360073, 0.254936, 0.357418, -0.314325, -0.208762, 0.383633, -0.0442671, 0.408567, -0.323664, 0.351527, 0.309748, 0.334864, -0.256127, 0.0121006, 0.397977, -0.431913, 0.222404, -0.281121, -0.301111, -0.288202, -0.159627, 0.325434, 0.191061, -0.130482, -0.173666, 0.185202, 0.352962, -0.355281, -0.0912046, 0.151723, 0.163106, 0.14095, 0.316309, -0.421506, 0.100055, -0.038316, -0.222678, 0.319086, 0.142293, 0.210501, -0.479614, -0.273034, -0.231651, 0.490875, 0.274071, -0.344325, -0.0432905, -0.0937071, 0.266778, 0.458739, 0.185934, 0.0603198, 0.227103, -0.010361, 0.434507, 0.0564745, 0.383541, -0.398129, 0.180929, 0.49826, 0.464629, 0.149037, 0.403775, 0.489166, -0.301202, -0.0153966, -0.418516, -0.367306, -0.185324, -0.0379498, -0.307367, 0.0324564, 0.040727, 0.434965, 0.21572, 0.291894, 0.105487, 0.256798, 0.129231, -0.485504],
      [-0.408597, -0.361568, 0.359462, 0.0981933, 0.0988647, -0.369045, 0.11449, 0.244774, 0.117573, 0.353969, 0.225517, -0.220908, -0.0380108, -0.253075, 0.256981, -0.109424, 0.446623, 0.249321, 0.273339, 0.268731, -0.114154, -0.199454, -0.160939, 0.102954, 0.0941649, -0.159871, 0.018601, 0.0827204, 0.386044, 0.307489, 0.3764, 0.397488, -0.424131, -0.357967, -0.0231178, -0.263298, -0.021836, -0.216727, 0.384579, 0.28985, 0.407346, 0.170675, -0.336146, -0.253685, 0.177847, -0.256371, 0.379238, 0.295618, 0.104175, -0.0583666, -0.404904, -0.372829, -0.499268, -0.295892, -0.124012, -0.0695364, 0.182028, 0.47055, 0.286309, -0.10509, 0.462493, 0.18038, 0.3905, -0.290002, 0.156514, 0.273064, 0.253014, 0.0651418, -0.421384, -0.311945, 0.438353, 0.149831, -0.456725, -0.135212, 0.0109104, -0.346522, 0.364895, -0.257256, -0.464843, -0.234397, -0.142079, -0.238639, 0.0755791, 0.175619, 0.336848, -0.139912, 0.196615, 0.0729545, -0.383938, 0.478423, -0.0373089, 0.147084, 0.0101169, -0.444273, -0.0617237, -0.412564, 0.333369, -0.468474, 0.187826, 0.0835444],
      [-0.135548, 0.134266, 0.0174413, 0.0139317, -0.0775323, 0.465636, -0.0852535, -0.284906, 0.110736, -0.230491, 0.40817, 0.417173, 0.485931, 0.227622, -0.195761, -0.448302, -0.395383, -0.478484, -0.090289, 0.0504013, -0.476501, -0.167104, 0.0311747, 0.344874, -0.200797, -0.156636, -0.0247047, 0.366756, 0.488403, -0.265404, 0.0486618, -0.4523, 0.147633, 0.188192, 0.0579699, -0.180624, -0.166372, 0.38583, 0.309839, -0.386624, 0.103046, 0.00914029, -0.389096, -0.1386, 0.0124363, 0.239738, 0.267815, -0.00498978, 0.118519, -0.240715, 0.0872066, -0.0540941, 0.477905, -0.250572, 0.375729, 0.145711, -0.352809, -0.108173, -0.0599841, -0.473937, -0.316889, 0.368068, 0.0867183, -0.481384, 0.142232, -0.140187, -0.37759, 0.0550096, 0.081225, -0.451292, -0.146138, -0.433164, 0.0567492, 0.116413, -0.412412, -0.0142064, 0.125385, -0.255455, 0.130329, -0.256493, -0.156178, 0.114765, 0.288659, -0.228385, 0.2687, 0.408689, 0.369228, -0.49826, -0.0433821, 0.307947, 0.178671, -0.134419, -0.0357219, -0.00578326, 0.0236671, 0.294702, -0.151723, 0.149129, -0.289178, -0.279229],
      [-0.352687, 0.0504013, 0.207511, 0.025193, -0.486541, -0.0890683, -0.190359, 0.280206, -0.00334178, 0.36169, -0.368618, 0.0404523, -0.0730155, -0.142293, -0.247215, 0.0110019, -0.365505, 0.35406, -0.246055, 0.396939, -0.050737, 0.305841, -0.285119, -0.0966979, 0.201437, -0.331904, 0.215751, -0.264763, 0.221, -0.104053, 0.336573, -0.402219, 0.338099, -0.0555284, -0.342586, -0.30398, 0.382778, 0.2687, 0.258446, -0.264977, -0.314905, -0.17626, -0.280358, -0.0800958, 0.0751823, 0.0647145, 0.121143, -0.0442976, -0.116901, -0.0533921, 0.0429853, 0.0475021, -0.0610828, -0.0754265, -0.434721, -0.0996277, -0.427305, -0.0463424, 0.26812, -0.280572, -0.385434, 0.488952, 0.231529, 0.209738, 0.394559, 0.485534, 0.0355998, -0.423673, -0.257256, 0.398465, -0.239586, -0.475677, -0.0107578, 0.182821, -0.0139012, 0.258843, -0.0358745, 0.293695, -0.207327, 0.484893, -0.0025483, -0.313868, -0.239738, 0.407559, -0.0807062, -0.184713, -0.0311136, -0.26809, 0.05974, -0.363826, -0.00132756, -0.336909, 0.248863, -0.396115, -0.0703299, -0.0938597, -0.183248, -0.326472, 0.341975, -0.333888],
      [-0.334101, 0.483489, -0.243828, -0.454314, -0.396847, -0.00587481, -0.27636, 0.361263, -0.334193, 0.210776, 0.00895718, 0.137684, 0.363704, -0.231834, 0.371853, -0.240257, -0.293481, -0.198874, 0.0720695, -0.387753, 0.204093, -0.05562, -0.130604, -0.420072, -0.133869, 0.332698, 0.0236366, 0.0475631, 0.202475, -0.399197, 0.294519, -0.100116, 0.222831, -0.116474, -0.0582141, -0.478301, 0.436979, -0.184378, -0.274773, -0.202231, -0.145344, -0.468169, -0.0953551, 0.112842, -0.0142979, -0.333064, 0.239738, 0.35168, -0.160176, 0.355739, -0.00968963, -0.10094, -0.0731986, 0.232933, -0.0838496, -0.360256, 0.256432, 0.433317, 0.276971, -0.0414899, 0.338404, -0.408383, -0.16744, -0.259911, 0.182546, -0.157338, -0.157308, 0.36932, 0.298608, -0.178793, 0.0671255, -0.269127, -0.303644, -0.338008, -0.234367, 0.209586, -0.114429, -0.00019837, -0.302026, -0.309839, -0.124012, -0.0305948, 0.12392, -0.442564, 0.177389, 0.205557, -0.196799, -0.303858, -0.200491, -0.157002, -0.00434889, 0.491058, 0.25219, -0.483489, 0.460997, -0.173116, -0.454894, 0.360897, 0.458983, 0.0884884],
      [0.488525, -0.0365764, 0.421049, 0.332636, 0.101062, 0.185781, 0.228019, 0.175466, 0.40762, -0.139515, 0.151814, -0.294092, -0.121174, 0.0831782, -0.0868404, 0.269768, 0.485534, 0.449583, -0.267205, -0.287347, -0.301721, 0.0554064, 0.331416, 0.380367, 0.487915, 0.496368, -0.0702994, 0.118519, 0.325037, -0.131886, 0.248344, 0.27282, 0.18038, -0.233573, -0.491943, -0.310968, -0.475372, 0.286981, 0.429594, -0.287194, 0.328578, 0.0254372, 0.233573, 0.189901, 0.0628224, 0.0775323, -0.359249, 0.465941, -0.301904, 0.0389569, -0.128162, 0.386715, -0.294855, 0.00544755, -0.352504, 0.297845, 0.0546129, -0.427335, 0.188467, 0.0450911, 0.217246, -0.163656, 0.215445, -0.025895, 0.163747, 0.392209, -0.0508896, -0.0693228, 0.364772, 0.335902, 0.110187, 0.26043, -0.208945, 0.263146, -0.0806452, -0.190909, -0.0866878, 0.269646, 0.0973693, -0.0776238, -0.297784, -0.0489059, -0.135151, 0.445982, -0.371517, 0.403256, -0.0574206, -0.274438, -0.337153, 0.221763, -0.448759, -0.393094, 0.275994, -0.497681, 0.411527, 0.435698, 0.438597, -0.159291, -0.255882, 0.0575732],
      [-0.0543077, -0.285211, -0.00874355, 0.392666, -0.258354, -0.308985, 0.348537, -0.0979186, 0.244682, -0.400632, 0.144276, -0.362423, 0.0426496, 0.15276, 0.216391, -0.437925, 0.223411, -0.435972, -0.0972167, 0.138417, 0.374905, -0.453856, 0.0413373, 0.329524, -0.415036, 0.311975, -0.030076, -0.401761, 0.441557, -0.425657, -0.473571, -0.0924863, 0.032487, -0.453764, 0.0487838, -0.279778, -0.0542772, -0.0595264, 0.374874, -0.000747703, 0.269127, -0.030015, -0.15746, 0.20748, -0.409452, 0.347682, 0.289758, 0.307794, -0.00206, 0.28637, 0.0543077, -0.2369, 0.0791803, 0.499023, -0.0258339, -0.463713, -0.077868, 0.198477, 0.387204, 0.0902585, 0.114704, 0.097644, 0.131275, 0.387875, -0.255242, 0.409452, -0.455687, -0.107959, 0.400266, -0.15331, 0.464202, -0.434355, 0.169027, -0.377651, 0.228843, -0.128407, -0.361049, 0.449309, -0.323939, -0.227256, -0.102008, -0.459593, 0.143818, -0.267968, -0.466063, -0.391415, 0.47, -0.287683, -0.36523, -0.13329, -0.00755333, 0.176504, -0.211661, 0.027665, -0.450926, 0.0874508, 0.0825678, 0.304346, 0.477844, -0.0919065],
      [-0.380917, -0.199301, -0.406461, 0.0511032, -0.388333, 0.223289, 0.468688, -0.309534, 0.115955, -0.0177465, -0.338832, -0.215598, 0.368282, -0.0610523, -0.342647, 0.444212, 0.104938, 0.454741, 0.443602, 0.281274, -0.437742, 0.390866, -0.493896, 0.406858, 0.476623, 0.108753, -0.168661, 0.43234, 0.0842769, 0.469665, -0.0944395, 0.469024, 0.121632, -0.16509, -0.284875, 0.128224, -0.175039, 0.0659047, -0.253685, -0.478729, -0.0693838, -0.476104, -0.014481, 0.259575, -0.325068, 0.0702994, -0.0809809, 0.454375, -0.205771, 0.066332, -0.466826, -0.283013, -0.475188, 0.373409, 0.314295, 0.158834, -0.39697, 0.352809, 0.248711, 0.39114, 0.265252, -0.134114, -0.177236, -0.474731, 0.247703, 0.273949, 0.0227515, 0.172628, -0.213218, 0.438353, 0.335047, 0.444426, -0.381161, -0.279626, -0.254112, -0.0479598, -0.0198523, -0.018601, -0.258263, -0.193197, -0.392941, -0.417264, 0.308832, -0.379971, -0.264092, 0.385739, -0.0664846, -0.496948, 0.103015, -0.248344, -0.397916, 0.0672475, -0.0552843, -0.458129, -0.199026, 0.423887, -0.00270089, 0.117756, -0.483612, 0.184286],
      [-0.495331, 0.282159, 0.325983, -0.243004, -0.458403, 0.116993, 0.0160375, 0.492279, 0.145009, -0.455809, -0.144459, 0.465423, -0.394131, -0.0202185, 0.385556, 0.342433, -0.284722, 0.339747, -0.352931, 0.289361, -0.235801, 0.0401166, 0.181143, -0.0278481, -0.456359, -0.00312815, 0.0287637, -0.443113, 0.344691, -0.373928, -0.269097, -0.290429, -0.0417646, -0.15624, 0.328669, -0.403775, -0.32461, 0.0658742, 0.363002, -0.117176, 0.287194, 0.208487, -0.12508, -0.26458, 0.0845515, -0.312433, 0.405515, -0.179983, -0.141438, 0.419187, -0.00428785, 0.302667, -0.0997803, -0.180685, 0.186575, -0.150716, 0.000534074, -0.196036, 0.0190893, -0.37402, 0.450529, -0.210807, 0.0343181, 0.298761, 0.0412152, -0.308985, 0.273247, 0.0336161, 0.0636158, -0.0746025, 0.276879, 0.496551, 0.308741, 0.408414, 0.08623, -0.146413, 0.0676138, -0.443999, 0.242363, -0.22924, 0.131214, 0.284265, -0.213797, 0.414121, -0.209403, 0.00917081, 0.258904, 0.449583, -0.163228, -0.353267, -0.298669, 0.0432295, -0.439238, -0.38702, -0.345424, -0.138936, -0.246422, -0.176077, 0.159688, 0.0691397],
      [-0.491089, -0.15746, -0.423307, -0.494659, -0.114612, -0.438475, 0.0914792, -0.129292, 0.257714, -0.301233, -0.146901, -0.28222, -0.247124, 0.00621052, 0.238548, 0.0485702, -0.00215155, -0.264214, 0.124744, 0.364986, 0.119556, -0.36053, -0.111316, -0.33105, -0.255058, -0.0307474, 0.407315, 0.462493, 0.00102237, 0.47705, 0.0575732, -0.252495, -0.485321, 0.414792, -0.283624, 0.0259865, 0.412931, -0.465545, -0.23925, 0.29986, 0.322657, 0.0880001, 0.0676138, 0.0710623, 0.370876, -0.172628, 0.0139012, 0.341609, 0.1845, 0.004532, 0.476623, -0.386654, -0.109516, 0.371456, -0.167379, -0.111621, 0.115802, 0.180044, -0.0410321, -0.331477, -0.0125889, 0.182272, 0.232597, -0.0441755, 0.132252, -0.36993, -0.469634, 0.252159, -0.322748, 0.275445, 0.229362, -0.440489, 0.249413, 0.370327, 0.206442, 0.37991, -0.0243385, -0.333369, -0.161428, -0.284845, 0.482971, 0.416379, 0.00276193, 0.0673391, -0.101764, 0.371487, 0.0759148, 0.438353, -0.15154, -0.216147, -0.0650197, 0.330164, 0.460631, 0.405545, -0.0430769, -0.255333, 0.361629, 0.488433, 0.0186926, 0.18392],
      [-0.12212, -0.0193945, -0.217368, 0.433287, -0.306848, -0.440703, -0.110004, 0.0298624, 0.434874, 0.297327, 0.170797, -0.404691, -0.277917, -0.0612354, 0.494263, 0.123798, -0.326014, -0.27221, 0.229423, 0.109424, -0.0902585, 0.408597, 0.245506, -0.453642, -0.451567, 0.225242, -0.0883969, -0.0712455, 0.20925, -0.0781121, 0.096881, 0.250725, 0.0112766, -0.257317, 0.170461, 0.00642415, -0.426298, 0.431822, 0.00151067, 0.189993, 0.0156407, 0.233329, -0.040849, 0.295557, -0.0437483, -0.108539, -0.0874813, 0.317255, -0.485321, -0.349727, 0.230766, -0.250786, 0.310053, 0.25399, -0.216971, -0.414365, 0.461516, -0.0533616, -0.0615406, 0.320643, -0.411832, 0.472503, -0.433836, -0.0516831, -0.190786, 0.0755791, 0.0353557, -0.0371258, -0.256218, -0.499908, 0.215079, 0.358394, -0.489013, -0.00984222, 0.474548, -0.370968, -0.270013, 0.289972, -0.317164, -0.23101, -0.480102, -0.356441, 0.209189, 0.272332, 0.499939, -0.204825, -0.0773492, 0.133229, -0.210898, -0.011124, 0.192373, -0.154195, 0.00669881, -0.0311441, -0.112445, 0.404233, 0.271752, -0.0207373, 0.377285, 0.302637],
      [0.031663, 0.10802, -0.116138, 0.317499, -0.466796, -0.0536973, 0.38815, 0.23104, -0.486663, 0.0645009, -0.370205, -0.00425733, 0.114704, 0.230125, 0.00148015, -0.370785, -0.020188, -0.289209, 0.395718, -0.351009, 0.251305, 0.274133, 0.205069, 0.0727103, -0.428343, 0.187613, 0.322138, 0.417905, 0.0835749, 0.218894, 0.139485, -0.297876, 0.429563, -0.364528, -0.450285, 0.443052, -0.247795, 0.205069, -0.0545824, -0.341884, -0.305933, 0.19512, 0.219138, -0.134968, 0.397794, 0.373287, -0.236534, 0.0813471, -0.49414, 0.00709555, 0.470977, -0.175436, 0.160939, -0.135853, -0.26577, 0.112354, 0.00556963, 0.212027, 0.445891, 0.462249, 0.182333, -0.181692, -0.00160222, -0.108203, 0.333796, -0.0494247, 0.284448, -0.0813471, -0.397488, 0.3764, -0.303461, -0.439665, -0.368862, 0.363338, 0.127308, 0.334468, -0.437803, -0.321009, -0.0307169, 0.258568, 0.0382855, -0.409055, 0.115101, -0.149739, 0.201956, -0.133229, -0.0427107, 0.127094, -0.304193, -0.225974, 0.388455, -0.393338, -0.33758, 0.08034, -0.198843, 0.306604, -0.255638, 0.0532395, 0.0879696, -0.255638],
      [0.0711844, -0.397488, 0.143269, -0.400174, 0.380581, 0.0207678, -0.192282, 0.405667, 0.480682, 0.325953, 0.486572, 0.384487, -0.0562304, 0.215293, 0.00196844, 0.483673, -0.157918, -0.11391, -0.323725, 0.15038, -0.252068, 0.0355693, 0.331751, 0.331965, -0.266411, -0.138966, 0.290643, 0.475646, 0.371273, 0.05974, 0.375179, -0.471343, -0.266747, -0.171072, -0.0923338, -0.0616626, 0.391842, -0.134083, -0.289636, -0.348079, 0.419248, 0.367916, 0.105548, 0.116688, 0.387753, 0.0322123, -0.084521, 0.27987, 0.369655, 0.0561083, 0.462432, -0.411283, -0.0628224, 0.136799, -0.431394, -0.00941496, 0.162618, 0.471618, -0.443663, -0.0673391, -0.381771, -0.242241, 0.247917, 0.362239, 0.376278, 0.192557, -0.0344707, -0.273461, 0.00901822, 0.473266, -0.468535, -0.0270852, -0.411252, -0.202902, 0.268029, -0.451445, -0.312311, -0.13863, -0.0025483, 0.400784, 0.37817, -0.136677, 0.0420087, -0.0232093, 0.232383, -0.499756, 0.22396, 0.22393, 0.322626, -0.0306253, -0.134449, -0.410611, 0.221152, -0.0319987, -0.210898, 0.0204932, 0.000259407, -0.306604, 0.316828, -0.0355083],
      [0.101764, 0.484436, 0.0150914, -0.369167, -0.237144, 0.461486, -0.478881, -0.394589, 0.372127, -0.401883, 0.304437, -0.118824, 0.21276, -0.197439, -0.101825, -0.383663, 0.0679495, 0.483001, 0.335597, 0.469115, 0.220908, -0.452422, 0.149892, -0.402371, 0.454833, 0.40463, 0.374264, -0.339839, 0.0529344, -0.0377667, -0.458129, -0.18508, -0.20159, -0.371364, -0.31399, -0.279962, -0.0255287, 0.312067, 0.339808, -0.466216, 0.364315, 0.420713, -0.46353, -0.0856197, 0.251152, -0.137257, -0.190725, 0.0199438, 0.41818, 0.0464034, 0.191336, -0.491272, 0.148579, -0.120136, 0.215903, -0.461058, 0.225578, -0.228629, -0.0838496, -0.231223, -0.0676138, -0.370907, -0.174703, 0.356471, 0.0522019, -0.138752, -0.023423, -0.0398419, -0.131794, 0.376064, -0.096881, -0.261925, 0.163625, -0.418363, -0.361812, 0.348445, 0.221671, 0.386319, -0.285028, -0.0505539, -0.17449, 0.198202, 0.166707, 0.199271, 0.258385, -0.0744499, -0.473479, 0.256157, 0.303461, -0.023484, -0.172323, -0.221702, 0.24398, 0.259362, -0.396664, -0.0761284, -0.136921, 0.182241, -0.113269, 0.351131],
      [0.107166, 0.255821, -0.0684683, 0.354488, 0.262322, -0.46469, -0.178579, 0.16097, -0.387967, -0.124836, -0.0814081, -0.397, 0.306757, -0.449278, -0.376583, 0.205924, -0.00318918, 0.337367, -0.163656, -0.0048677, -0.167348, -0.489532, -0.0423139, 0.496002, 0.46466, -0.15453, -0.112079, -0.266045, 0.0431684, -0.38229, 0.0273598, 0.234367, 0.21865, -0.397366, 0.276421, 0.0226295, 0.141408, 0.0756096, 0.0355083, -0.375912, 0.461913, -0.188009, 0.205008, 0.0642567, 0.3305, 0.0872066, 0.185324, -0.131611, 0.39761, -0.323389, -0.123218, 0.0619678, -0.186422, -0.144337, -0.320154, 0.170339, 0.228843, 0.399716, 0.494903, 0.218894, -0.206259, -0.415891, -0.277734, -0.266991, 0.158712, 0.184347, 0.262444, -0.261864, 0.474151, 0.475738, -0.484283, -0.240379, 0.390408, 0.233665, 0.382565, -0.177145, 0.0578784, -0.266472, 0.263298, 0.453246, 0.126972, -0.24926, 0.0583666, -0.323847, -0.251915, -0.439299, 0.168142, 0.0170141, -0.428404, -0.0612049, 0.493011, -0.49884, -0.252098, 0.16039, 0.433348, -0.345973, -0.0725883, 0.000900296, -0.110431, -0.498993],
      [-0.333766, -0.349116, -0.359279, -0.118397, 0.0666982, 0.461394, 0.0283364, -0.447478, -0.233818, 0.473754, -0.323084, -0.300226, 0.313562, -0.138203, 0.385311, -0.252861, -0.242363, 0.299432, 0.45233, -0.381558, -0.352748, -0.0396283, -0.323267, -0.262474, 0.0312357, -0.481475, 0.357479, 0.0282449, 0.458434, 0.147755, 0.293298, -0.0856197, -0.0224158, -0.47824, -0.216971, 0.319788, 0.137623, -0.185507, -0.374447, -0.331751, -0.0126804, -0.300287, 0.119678, -0.116321, 0.0755486, 0.351283, 0.0641957, 0.389859, 0.451079, 0.442991, -0.242058, 0.110584, -0.337245, 0.148701, -0.00019837, 0.469726, -0.240532, 0.142232, 0.0885189, 0.39111, 0.289972, -0.402615, -0.177023, 0.298547, 0.303125, 0.18807, -0.497986, 0.115864, 0.347743, 0.0880306, -0.0755791, 0.2669, 0.472655, -0.0288858, 0.389065, -0.324519, 0.226676, 0.0111545, -0.305292, -0.23455, -0.341334, -0.11803, 0.140248, 0.460631, 0.317469, -0.242576, -0.475524, 0.184805, 0.251854, 0.311335, 0.14626, -0.138142, 0.0106662, -0.282525, -0.195639, -0.0843989, -0.357234, -0.350246, -0.202353, 0.26986],
      [0.163045, -0.0435957, 0.474975, 0.262322, -0.479675, -0.266045, 0.296503, 0.134297, 0.332026, -0.242515, -0.313288, 0.428953, -0.0483566, -0.494598, 0.249107, -0.125202, 0.232719, -0.0437178, 0.0872372, -0.299677, -0.471282, -0.411374, -0.195456, -0.365902, -0.306787, 0.380978, -0.495392, -0.0953551, 0.0797296, -0.188223, -0.209098, 0.24041, -0.458281, -0.14037, -0.232994, -0.130055, 0.432768, 0.00300607, 0.0363628, -0.47824, -0.393674, 0.22042, -0.29751, 0.424406, 0.415983, -0.00962859, 0.368984, 0.30633, -0.284845, 0.291437, 0.139271, 0.396115, -0.142567, -0.397946, -0.383084, 0.422239, -0.303705, -0.0992004, -0.0945921, -0.386807, -0.414701, -0.333857, -0.39172, -0.302454, 0.377956, -0.123371, -0.170949, -0.0961791, 0.427732, 0.0107883, 0.171255, -0.0395062, -0.411832, 0.0471053, -0.261681, 0.0960875, 0.21279, 0.464141, 0.133869, 0.03914, 0.15511, 0.240318, 0.461364, 0.0181127, -0.231346, -0.145772, 0.324335, -0.238426, -0.0930967, 0.284387, -0.173757, 0.498047, -0.0765862, 0.00926237, -0.429319, -0.0439924, -0.328333, 0.00743126, -0.338862, 0.363979],
      [-0.0492111, 0.211631, -0.425382, -0.434751, -0.265648, -0.216941, -0.311975, -0.173818, 0.0999634, 0.0620899, 0.040727, 0.264428, -0.0128941, -0.386898, -0.177847, -0.305628, -0.164785, -0.49939, -0.278191, 0.43054, -0.416257, 0.289026, -0.0708792, 0.287317, -0.327815, 0.0428022, 0.133534, -0.420835, 0.039964, 0.326411, -0.475494, 0.120624, 0.126514, 0.204306, -0.208518, 0.226066, -0.128712, 0.240898, 0.123951, -0.290063, -0.286218, -0.499329, 0.211325, -0.113239, -0.406613, -0.451903, 0.243095, -0.429075, -0.0503403, 0.44763, -0.0913266, 0.0769219, -0.278069, -0.23632, 0.397519, 0.219169, 0.349727, -0.439268, 0.399136, 0.312128, -0.227531, 0.403256, 0.102893, 0.170278, 0.429655, 0.355647, 0.198325, 0.108051, 0.260704, -0.0175939, -0.125172, -0.0601062, -0.294977, 0.347987, -0.178121, -0.0196997, -0.297845, 0.0168004, 0.228935, 0.0436872, -0.308496, 0.0533311, -0.21456, 0.444517, -0.387478, 0.0220496, -0.319147, -0.00279244, -0.095294, -0.0126194, -0.395383, 0.0162511, -0.492553, -0.486236, -0.253777, 0.316126, -0.13976, -0.334315, -0.204947, 0.211234],
      [-0.147877, 0.498749, -0.494812, -0.173452, 0.341609, 0.477996, -0.162862, -0.180593, 0.248924, -0.00138859, -0.384732, -0.0554979, -0.244255, 0.367306, 0.271203, -0.241569, -0.456297, 0.390652, -0.263421, 0.317866, -0.205557, 0.375301, 0.443113, 0.179403, 0.189596, 0.127888, 0.322321, 0.399747, -0.0891903, -0.044908, -0.194082, -0.464568, -0.360286, -0.336482, -0.174459, -0.356777, -0.442045, -0.440184, -0.187185, 0.279748, 0.347194, 0.450652, -0.300623, -0.498474, 0.189047, -0.357387, -0.0830866, -0.134663, -0.234855, -0.0576037, 0.397031, 0.427763, 0.257164, -0.34341, -0.428678, -0.254601, 0.346706, -0.408139, 0.371548, -0.125019, 0.215445, 0.0548875, 0.229209, 0.373104, -0.455046, -0.147755, 0.0760369, 0.296381, -0.483032, 0.290613, 0.343684, 0.201468, -0.18688, 0.176626, -0.0363018, 0.145009, -0.385037, -0.183126, 0.367824, -0.31634, -0.395779, 0.0180822, 0.48764, -0.125935, -0.037492, 0.0868404, -0.245231, 0.272851, 0.371487, -0.170186, 0.100909, -0.0633412, 0.012711, -0.446409, -0.0423139, 0.422147, -0.432096, 0.0648976, 0.256737, -0.214103],
      [-0.442961, 0.275506, 0.414792, -0.483825, 0.349544, 0.0381024, 0.183767, -0.0081637, 0.396268, 0.184347, 0.121998, 0.078692, 0.152303, -0.20571, -0.0653859, 0.106769, -0.427274, 0.448057, -0.17333, -0.0937986, 0.11269, 0.225669, -0.496735, -0.192953, -0.27282, -0.292749, 0.169454, -0.360591, -0.128681, -0.0271157, -0.469695, -0.266655, -0.499817, -0.397366, -0.209067, -0.0810724, 0.068865, -0.32345, -0.343593, -0.473785, -0.46762, -0.225242, 0.331782, 0.385342, 0.345882, -0.0226905, -0.477874, -0.173666, 0.464385, -0.135731, 0.432585, -0.320704, 0.343013, -0.484252, -0.231834, 0.274316, -0.0631886, -0.488189, -0.266045, 0.441435, -0.299127, -0.0674612, 0.035081, -0.489257, -0.409696, 0.357997, -0.123432, 0.312372, 0.0601672, -0.131733, -0.0364544, 0.176321, 0.065508, 0.0434431, -0.498993, -0.0672781, 0.0614185, -0.0364238, 0.194143, -0.0883969, 0.00297555, 0.208762, 0.247948, -0.0569018, 0.345302, -0.140919, 0.36755, 0.357295, 0.0434126, 0.494598, -0.242058, -0.0158238, -0.4476, 0.195395, 0.124317, 0.15392, -0.172597, -0.458434, -0.328333, -0.303461],
      [0.107685, 0.141652, -0.0883358, -0.424894, -0.396176, 0.409116, -0.033372, 0.441679, -0.186209, -0.497864, -0.00972015, 0.451201, 0.372341, 0.180624, -0.132588, -0.386502, 0.414243, -0.29577, -0.0172582, 0.438383, -0.42581, -0.167226, 0.221091, -0.0644398, -0.0129246, -0.173971, -0.0328227, -0.38522, 0.287622, 0.443754, 0.105823, 0.4859, -0.389492, -0.0543382, 0.0217139, 0.0586108, -0.409391, 0.0915708, -0.400327, 0.342677, 0.362667, 0.141255, 0.224479, -0.15212, -0.438627, -0.145589, -0.219138, -0.416013, 0.321619, 0.490905, -0.346431, 0.0607776, 0.278039, -0.189566, -0.272576, 0.287988, -0.434538, 0.0727714, 0.387173, -0.224601, -0.181295, 0.0377056, -0.482452, -0.467223, 0.172445, -0.03502, -0.496673, 0.0699026, 0.261498, -0.385617, 0.229331, 0.396542, 0.220603, 0.245659, 0.0802484, 0.0223853, -0.315485, -0.381436, -0.0590991, -0.0427107, -0.211936, -0.00709555, 0.196005, -0.289026, 0.165944, 0.128407, -0.269646, 0.293268, -0.0470443, 0.284875, -0.071276, 0.213828, -0.216117, 0.222037, -0.324122, 0.482513, -0.206565, 0.199667, 0.356563, -0.390957],
      [0.283319, 0.121204, 0.255333, -0.130177, 0.205435, -0.315485, 0.0361797, 0.421049, -0.443602, -0.158712, 0.481231, -0.386502, 0.431974, 0.312159, -0.0637989, 0.417966, 0.427824, 0.317866, 0.246818, 0.305078, -0.360408, -0.420927, -0.241234, 0.245598, -0.336879, 0.316553, 0.317743, -0.289819, -0.406003, 0.250969, 0.269463, -0.330439, 0.0279702, -0.397, 0.459624, -0.405545, 0.0607471, 0.0934019, 0.23394, 0.455535, 0.288018, -0.0571764, 0.438108, -0.276513, -0.19454, -0.127979, 0.417783, 0.369076, 0.208853, 0.101672, 0.0187536, -0.137043, -0.406186, 0.352474, -0.413358, 0.175863, -0.443907, -0.154897, -0.0327616, -0.221549, 0.191397, 0.300317, -0.493866, -0.358547, 0.0953856, -0.0612049, 0.0491806, 0.235588, 0.363826, 0.481262, -0.0580615, -0.468474, -0.407651, 0.148396, 0.0301981, 1.52593e-05, -0.12328, -0.339137, -0.340419, -0.388302, -0.187368, 0.239463, -0.324091, -0.162679, 0.495788, -0.395199, 0.424802, -0.352412, -0.478179, -0.0223548, -0.248039, -0.486816, -0.0134739, 0.078692, 0.00309763, 0.404843, 0.485565, 0.12862, 0.0239723, -0.206778],
      [0.302606, 0.446104, -0.312342, -0.493744, 0.210837, -0.434538, 0.414304, 0.306574, 0.12154, -0.30636, 0.437315, -0.0279092, -0.252403, -0.331507, -0.280389, -0.409268, 0.301874, -0.172048, -0.275933, -0.249565, 0.497284, 0.00984222, 0.413633, -0.460967, -0.453337, -0.447905, 0.251122, -0.455565, 0.162984, 0.292657, 0.199484, -0.145466, -0.440947, -0.430723, -0.278466, 0.0572375, 0.447874, 0.219993, -0.219749, 0.24041, 0.0422224, -0.417417, -0.161519, -0.00807215, 0.0550401, 0.495025, -0.140858, 0.399747, -0.300775, 0.29516, 0.305078, 0.0516526, -0.312372, -0.179128, 0.13921, 0.0356304, 0.233207, 0.410092, -0.175588, -0.0604724, 0.0488144, -0.099353, 0.323603, -0.148732, 0.347316, -0.369503, 0.0996582, 0.358699, -0.158376, 0.437498, 0.115467, -0.450285, -0.255364, -0.34048, -0.166097, 0.0122837, -0.230766, 0.134541, 0.217887, -0.165822, 0.128346, 0.200339, -0.269707, -0.396634, -0.465239, -0.305139, 0.33404, 0.407712, 0.201498, -0.0439924, 0.491974, -0.164876, -0.15865, -0.178365, 0.166982, -0.0265358, -0.332728, -0.370327, -0.177999, 0.410672],
      [0.0203512, 0.188253, -0.39829, -0.269891, -0.44744, -0.316797, 0.494265, 0.248587, 0.211969, -0.215178, -0.366571, -0.195317, -0.144326, -0.021101, 0.126014, 0.133857, -0.151899, 0.252363, -0.415352, 0.472712, 0.0513365, 0.091789, 0.121449, -0.442168, -0.174824, 0.481229, 0.346889, -0.374752, 0.0298194, -0.0901694, 0.372616, 0.411456, 0.0289791, 0.362728, -0.190422, 0.15293, -0.317438, 0.326408, -0.23081, -0.414697, 0.352359, -0.213073, -0.135264, -0.0567473, -0.100574, 0.231041, 0.204793, -0.0301027, -0.314508, -0.355061, 0.401435, -0.105414, -0.42877, -0.485473, -0.433008, 0.456255, -0.0814082, -0.173399, 0.311801, -0.10956, -0.411319, 0.0674919, -0.252494, -0.0657868, -0.0571485, 0.223321, 0.485433, -0.176321, -0.157666, -0.217919, -0.363545, 0.295153, -0.350632, -0.274885, -0.186749, -0.415222, 0.222927, -0.455213, 0.125844, 0.428997, -0.0734432, 0.223376, 0.185895, 0.0649313, -0.3791, 0.249229, 0.104877, 0.227688, -0.333538, -0.391969, 0.494047, 0.153616, -0.0729544, -0.213708, 0.465255, -0.419461, -0.237796, -0.230072, -0.371793, -0.256581],
      [-0.195146, -0.209633, -0.0769087, 0.0745959, -0.412494, -0.0986168, 0.166391, -0.0855863, -0.394121, 0.296185, 0.299055, -0.252113, 0.250231, -0.487563, -0.0413515, 0.360672, 0.455309, -0.404992, 0.319764, 0.0452562, -0.358041, 0.0863135, 0.0526301, -0.40549, -0.283061, 0.0132562, 0.318691, 0.297542, 0.0890581, -0.0654318, -0.214527, -0.0539358, -0.310988, -0.116443, -0.383232, -0.167462, -0.0755133, 0.402307, 0.479273, -0.256479, -0.28653, -0.469727, -0.449216, -0.0406236, 0.47131, -0.189044, 0.480522, 0.313677, 0.116002, 0.284833, 0.439132, 0.0540696, 0.059375, 0.489807, 0.0989826, -0.0123726, 0.221457, 0.469999, -0.380685, 0.400828, 0.0168563, -0.23345, -0.331168, 0.088676, 0.361894, 0.419231, 0.413084, 0.341238, -0.328202, -0.0207939, -0.484483, -0.0507198, -0.131605, 0.456651, 0.150464, 0.202787, 0.352904, 0.430085, -0.0243296, -0.106814, 0.0551905, -0.0848212, 0.15923, 0.316939, 0.387086, 0.465667, 0.368465, 0.257127, 0.259428, 0.118705, -0.231633, 0.00485635, 0.103596, 0.416147, 0.0286881, 0.3609, -0.175446, 0.396672, 0.305348, -0.39289],
      [0.375973, 0.067156, 0.177938, 0.246452, 0.398709, 0.473571, 0.147847, 0.0612049, -0.0587634, -0.27163, -0.299005, -0.399686, -0.244469, 0.208579, -0.160604, 0.490844, 0.0935545, -0.208884, 0.0650197, -0.14037, -0.292779, -0.147053, 0.379788, 0.333735, -0.151448, 0.27102, 0.285669, 0.040025, 0.269463, 0.422269, -0.215445, -0.394559, 0.221885, 0.183645, 0.378506, 0.157064, 0.457823, -0.0678579, 0.0693838, 0.321711, 0.229148, -0.455321, 0.359218, 0.226402, 0.287896, 0.398251, 0.24987, 0.498077, -0.114032, 0.369778, 0.24337, 0.263665, -0.224631, -0.163808, 0.341639, 0.150136, 0.208029, -0.325526, 0.046617, 0.284478, -0.0641346, 0.261589, 0.360317, 0.293603, 0.210868, 0.474487, -0.215384, 0.304468, -0.215049, -0.309961, 0.321528, -0.0559862, -0.0898618, -0.214682, 0.472961, 0.339259, 0.338343, 0.137257, 0.240898, 0.117084, 0.321497, -0.377285, 0.127277, 0.404477, -0.388424, -0.381252, 0.134053, -0.171651, 0.46054, 0.00227363, -0.236839, -0.484283, -0.379696, 0.150227, 0.0166173, 0.093524, 0.342891, -0.0604114, 0.396329, -0.311335],
      [0.224423, -0.209758, 0.0261656, -0.145314, 0.425752, -0.246032, 0.342538, -0.197575, 0.47868, 0.0864854, 0.321797, 0.488287, 0.130724, -0.343012, -0.0430769, 0.0336802, -0.374125, -0.166295, -0.253792, 0.0591784, -0.290565, 0.486808, -0.317927, -0.316899, -0.378843, -0.0131777, 0.258721, -0.475517, 0.109694, 0.200429, 0.470244, -0.298017, 0.417721, 0.497895, -0.188181, -0.163956, 0.289397, -0.252171, 0.274516, 0.0475053, -0.0314461, 0.319475, 0.355585, -0.0558987, 0.200003, 0.0823262, 0.0496402, -0.337513, 0.227187, 0.405452, -0.153798, -0.189362, -0.205253, 0.158463, -0.25597, -0.490478, 0.146504, -0.291341, 0.235817, 0.379246, 0.0267495, -0.0729545, 0.315546, -0.462446, -0.320748, 0.182272, 0.480569, -0.393033, -0.150929, 0.34339, -0.284576, -0.296843, -0.220211, -0.220535, -0.475691, 0.443446, 0.215395, 0.360973, -0.100578, -0.0448838, 0.399474, 0.453436, 0.329518, -0.149003, 0.0773804, -0.0705527, -0.18569, 0.250513, 0.490781, 0.157149, -0.153858, -0.226387, 0.389555, 0.00545445, 0.419179, -0.460484, 0.0138343, -0.15624, 0.0276092, 0.167237],
      [0.450227, 0.047842, 0.320086, -0.0605118, -0.159189, 0.38938, 0.492996, -0.281671, 0.418698, -0.117583, 0.426503, -0.47298, -0.0413449, -0.0802954, 0.137657, 0.0115125, -0.272133, 0.395516, 0.152676, 0.318648, 0.49867, -0.309444, 0.486039, 0.0895805, -0.476413, -0.279891, -0.345238, 0.465357, -0.417452, -0.140756, -0.323783, 0.0895105, -0.0536145, 0.0052367, 0.071439, 0.102534, 0.375023, -0.448722, -0.15007, 0.161451, 0.136944, 0.388105, -0.46408, 0.371969, 0.00249061, -0.0897456, 0.150521, 0.421733, 0.238474, 0.00982095, 0.197863, 0.426706, -0.390867, 0.0810227, -0.292396, 0.033513, 0.386018, 0.0107044, 0.193449, 0.387186, 0.335357, 0.197111, -0.32676, 0.127255, -0.277037, -0.469305, -0.330358, 0.403393, 0.321634, 0.405931, 0.184701, -0.148438, 0.395378, -0.287391, -0.249613, -0.387629, -0.290387, -0.153477, 0.384055, 0.341461, -0.466204, -0.304804, -0.406265, 0.164427, -0.36158, -0.344287, 0.404233, -0.265844, 0.283776, -0.382103, 0.333623, 0.189925, 0.247918, -0.0200838, 0.394861, 0.175335, -0.205378, -0.373897, 0.10959, -0.170412],
      [0.424693, 0.211643, 0.334503, -0.386447, -0.015163, 0.146376, 0.164966, 0.113815, -0.309324, -0.149152, 0.425037, -0.263167, 0.239448, 0.153784, 0.0592504, -0.454659, -0.172292, 0.373371, -0.479124, 0.123305, 0.152242, 0.321965, -0.244415, -0.461124, 0.407272, 0.344036, 0.209988, 0.363356, 0.292627, 0.239869, -0.169138, -0.328565, 0.0122265, 0.352657, 0.0720138, 0.0301798, 0.255277, 0.488667, -0.134847, -0.473866, 0.219549, -0.0293608, -0.329217, -0.291788, -0.394858, -0.369236, 0.435662, -0.330368, -0.391029, -0.216713, -0.398724, -0.029786, -0.075049, 0.25531, 0.118595, -0.312097, -0.24602, 0.360033, 0.432741, 0.393447, -0.207748, -0.0674027, 0.494625, 0.159702, 0.239086, 0.286846, -0.253695, -0.442458, -0.214668, 0.2473, 0.142058, -0.338527, -0.363577, 0.136765, 0.120606, 0.0433465, 0.486521, -0.220901, -0.365758, -0.222524, -0.474907, 0.489149, 0.131987, 0.422748, 0.463931, 0.0970021, -0.443754, 0.065767, 0.487306, -0.0803004, 0.359683, 0.279685, 0.300443, -0.210183, 0.482168, 0.128552, 0.0996859, 0.0145749, 0.377193, 0.18348],
      [0.0398665, -0.258182, -0.232053, 0.323336, 0.240673, 0.0994577, 0.337477, 0.397369, -0.163989, 0.45406, 0.434154, 0.428061, -0.279884, 0.350819, 0.21074, 0.191126, 0.310932, -0.191022, 0.334039, -0.0135832, -0.493212, 0.381222, -0.0393235, -0.413024, -0.275171, 0.0848541, -0.252709, 0.279017, -0.126966, 0.444821, -0.147334, -0.156343, 0.350796, -0.461013, -0.0609602, -0.429925, 0.0758186, -0.145307, 0.15267, 0.231684, 0.451568, 0.426896, 0.163754, 0.115374, 0.387265, -0.179279, 0.126546, 0.0111693, 0.289528, 0.0420507, -0.301552, 0.191581, 0.0716916, -0.36299, 0.0389004, 0.447838, 0.136338, -0.381306, -0.197536, 0.060127, 0.394009, -0.44608, 0.156234, -0.186227, 0.258044, 0.453429, -0.249301, -0.0125478, -0.379388, -0.151152, -0.258656, 0.368394, -0.0933617, -0.216785, -0.202997, 0.232632, 0.0241584, -0.210244, 0.0678364, 0.379096, 0.361198, -0.111103, 0.211055, 0.0794692, -0.14955, -0.372849, 0.393094, 0.112221, -0.119705, 0.0333494, 0.264341, -0.224324, 0.379832, -0.359393, -0.0135572, -0.161432, -0.257397, 0.482139, 0.21524, -0.409859],
      [-0.357575, 0.0457082, 0.000798676, -0.105395, 0.264695, 0.426198, 0.0632695, -0.105675, 0.274944, -0.167338, 0.0835811, 0.0603837, -0.0599015, -0.331509, -0.41641, 0.039599, 0.0340672, -0.169569, -0.408853, -0.0134707, -0.164863, -0.276028, -0.369686, -0.450744, 0.11907, 0.24521, -0.272942, -0.12074, 0.160822, -0.204431, 0.406613, -0.373656, -0.265464, 0.277633, -0.304592, -0.0581478, 0.11718, 0.0885955, 0.11351, 0.475557, 0.0833615, 0.13001, -0.304344, 0.375117, -0.0912351, -0.196158, -0.0397575, 0.295831, 0.368267, 0.00841761, -0.0655993, 0.384396, -0.261435, 0.144408, 0.143757, 0.293205, -0.206268, 0.113687, -0.386418, 0.171915, -0.190359, 0.315088, -0.130635, -0.324567, -0.437073, -0.350459, -0.0660821, -0.0589465, 0.325107, -0.483013, 0.340136, -0.367883, -0.124628, -0.180704, 0.10594, -0.106688, 0.493297, -0.043819, -0.24218, 0.378801, -0.0617856, -0.174032, 0.325226, 0.236051, -0.498559, -0.168356, 0.329554, 0.114802, -0.0482348, -0.127276, -0.202507, 0.175298, -0.431277, 0.349564, 0.253972, 0.0445714, 0.123859, 0.162682, -0.274111, -0.107272],
      [-0.0378609, -0.00813308, 0.370963, -0.180136, -0.364715, -0.182476, 0.175924, 0.476181, -0.446084, 0.442503, 0.496796, -0.480381, -0.114193, -0.333735, -0.243187, -0.00155997, 0.305005, -0.212278, -0.120134, 0.462264, -0.0126344, -0.394203, 0.289758, -0.0408795, -0.394205, 0.419035, -0.0896786, 0.038438, 0.334415, 0.0265349, 0.165395, -0.251188, -0.153127, -0.273003, -0.0216067, -0.360927, 0.317186, 0.319302, -0.226757, -0.241871, 0.418943, 0.101813, 0.47586, -0.345303, 0.326136, -0.125324, -0.492829, 0.377682, -0.287439, -0.0645826, -0.207846, 0.47589, -0.247978, 0.0829773, -0.245415, -0.00184702, 0.118392, -0.382862, 0.318352, 0.493286, -0.0145116, 0.33578, -0.0927916, 0.0125632, 0.0270767, -0.462005, 0.443387, 0.0974914, 0.417081, 0.0226721, 0.355571, -0.195791, -0.170764, 0.0887039, -0.437172, -0.320885, 0.439646, -0.465719, 0.489475, -0.228936, -0.084521, -0.340236, 0.0623677, -0.371151, 0.437193, 0.262535, -0.297662, 0.301314, -0.323774, -0.35812, 0.334284, 0.340978, -0.193014, -0.403352, 0.381669, -0.214438, -0.497217, 0.425721, -0.230827, 0.194014],
      [-0.264672, 0.452055, -0.351009, 0.434294, 0.199118, 0.243004, 0.398587, -0.343257, -0.208396, -0.0146031, 0.453642, 0.0699942, -0.008652, 0.28283, -0.457305, -0.472533, -0.223136, 0.238762, -0.105731, 0.382748, -0.373379, 0.456725, 0.2369, 0.489319, -0.480804, 0.0402387, -0.200949, 0.200644, -0.0668813, -0.407193, 0.30932, 0.370327, -0.153188, 0.217978, -0.00389111, 0.351833, -0.261132, -0.480804, -0.411985, -0.00129704, -0.412229, -0.39993, 0.313593, -0.335566, -0.127949, 0.0640736, -0.0987732, 0.202567, -0.429777, 0.0146947, -0.420469, -0.033433, 0.160817, 0.0554674, 0.0770135, -0.190023, -0.377712, 0.289941, -0.377865, 0.0863521, 0.433226, 0.321589, -0.0565355, -0.350856, -0.427915, 0.253929, 0.269524, -0.148091, -0.482604, -0.309534, 0.328791, -0.451842, 0.247765, -0.265221, 0.349788, 0.0914182, 0.241569, -0.00965911, 0.0610218, 0.33517, 0.477386, -0.43936, -0.308954, -0.367092, 0.433744, 0.0492416, -0.0316324, -0.161794, 0.0891293, -0.440367, 0.121479, 0.30459, -0.077929, -0.304651, -0.121113, -0.11449, -0.0888852, -0.440123, 0.469176, -0.0654775],
      [0.362239, 0.16982, 0.470794, 0.0971557, 0.0313578, -0.468719, 0.255181, 0.386624, -0.240379, -0.0163732, -0.431578, 0.0491806, 0.111469, -0.283715, 0.224967, -0.475738, 0.151357, 0.418699, -0.460753, -0.24865, 0.443693, 0.280328, 0.3258, 0.169912, 0.0529649, -0.00935392, -0.101062, -0.280663, -0.456389, -0.260949, 0.0732292, -0.160878, -0.0198523, 0.215079, 0.163076, 0.468719, -0.0730766, -0.391903, -0.0170751, 0.0475631, 0.448485, -0.392392, -0.15273, -0.484924, 0.10921, 0.403073, -0.429502, 0.310816, -0.0263833, -0.316095, 0.467162, 0.374172, -0.393918, -0.360408, 0.35165, 0.144551, 0.0711539, -0.0404218, -0.461638, -0.438536, -0.0667898, -0.166707, -0.158132, 0.0643788, 0.256767, -0.0497604, -0.42346, -0.407315, -0.393826, 0.499847, -0.443144, -0.41409, 0.0460067, 0.171529, 0.0972777, -0.0165258, 0.140645, 0.154805, 0.0122532, 0.224815, -0.0454268, 0.139058, -0.383786, 0.249382, 0.0522019, 0.313807, -0.27636, 0.496673, 0.498047, 0.368465, -0.351009, -0.0939207, -0.143513, 0.492523, 0.206717, -0.0829035, 0.192068, 0.375393, -0.288781, 0.469176],
      [-0.290399, 0.26516, 0.038377, 0.0643788, -0.0729545, 0.384121, -0.00788903, -0.268609, -0.368801, 0.394589, 0.0233314, 0.443205, 0.128681, -0.271874, -0.311274, -0.118549, 0.226157, 0.316492, 0.0449385, 0.227805, 0.230247, -0.40878, -0.351436, 0.1639, -0.052385, 0.484069, -0.443693, -0.128681, -0.315119, 0.426572, 0.324763, 0.031785, 0.24868, 0.350398, 0.0105747, -0.173116, -0.0543077, -0.31283, 0.170431, -0.0617237, -0.417508, 0.368587, -0.139119, -0.452391, 0.465819, -0.173757, -0.361354, 0.336543, 0.402188, -0.00819422, -0.439665, 0.486663, -0.30166, 0.296899, 0.182608, -0.320399, 0.160878, -0.326838, -0.437925, 0.0970946, 0.0964537, -0.447783, 0.255425, 0.420713, 0.311701, -0.134236, 0.319239, -0.167928, 0.113239, 0.0453963, 0.310175, 0.0128636, 0.307733, 0.0227821, 0.284875, 0.144734, 0.201834, 0.229545, -0.200003, -0.0907163, -0.397855, -0.402707, -0.087817, 0.488189, -0.184652, -0.442289, 0.17806, -0.436979, -0.351955, 0.042436, -0.345729, 0.315546, 0.406949, 0.483123, -0.102527, 0.427274, -0.101398, -0.18865, -0.0357219, 0.0799127],
      [0.279656, 0.123371, -0.279321, 0.372707, -0.266076, -0.0624866, -0.279962, -0.453368, -0.264092, -0.414975, 0.494659, 0.0939817, 0.365688, -0.229026, 0.374599, -0.0302286, 0.203299, -0.299585, 0.189932, -0.370876, 0.328883, 0.0784478, 0.270745, 0.0271157, 0.322474, 0.110157, 0.447142, -0.381222, 0.264153, -0.49942, 0.0491195, 0.359279, -0.266015, 0.454863, -0.0931578, -0.296411, -0.187887, -0.322016, 0.350398, -0.393155, 0.0785394, 0.375149, 0.209769, -0.47589, -0.386624, 0.251335, -0.184896, 0.410489, -0.00325022, -0.488372, -0.00352489, -0.278985, 0.308649, -0.138844, 0.0839412, 0.410825, 0.1292, -0.495025, -0.0924253, -0.0650807, -0.461547, 0.148183, -0.202506, 0.248466, 0.116535, -0.0041963, -0.416257, -0.193533, -0.056505, -0.247063, -0.403592, -0.435972, -0.400601, -0.375301, -0.334437, -0.0237587, 0.164357, 0.316156, 0.121326, -0.00184637, 0.218406, 0.0323344, -0.20629, 0.0848872, -0.158345, 0.478362, 0.012833, 0.191488, -0.38583, -0.140706, -0.391232, -0.226981, -0.383969, -0.11977, -0.0884274, -0.215384, 0.427335, -0.253777, -0.24865, -0.31869],
      [0.343654, -0.0542467, -0.433256, 0.0847652, 0.317316, -0.353664, -0.356624, -0.305719, -0.375637, 0.323511, 0.370876, -0.339808, 0.0246742, -0.138112, -0.241081, 0.117298, -0.222068, -0.353664, 0.317347, -0.299738, -0.356075, -0.438444, 0.0558641, -0.456053, -0.117542, -0.00758385, 0.484313, 0.283105, 0.253258, -0.176443, -0.387631, 0.0524766, 0.016068, 0.439848, -0.0501267, 0.486847, -0.0693228, -0.274071, -0.493439, -0.279077, 0.25689, 0.0667287, -0.207816, 0.389554, -0.245598, 0.346889, -0.183462, -0.372585, -0.31698, -0.0487838, 0.0893735, 0.0693838, -0.197501, -0.235557, -0.379543, -0.149861, 0.372616, 0.171438, -0.0804315, -0.395535, 0.153127, 0.0568407, -0.00355541, 0.467193, 0.403806, -0.19451, 0.360866, 0.072985, -0.115589, 0.302118, 0.0225684, -0.443358, -0.145314, -0.0684683, 0.491394, -0.44705, 0.0744499, -0.421567, -0.222983, 0.196677, -0.196585, -0.372341, 0.389279, 0.122578, -0.19863, -0.0360881, 0.337886, 0.465423, 0.32812, -0.0279702, 0.132649, -0.140065, 0.143361, -0.463317, -0.216697, 0.440977, -0.493133, 0.0427412, -0.200369, -0.156789],
      [0.496796, 0.298761, -0.295373, -0.263604, -0.40228, -0.201132, 0.281762, -0.455077, -0.231346, -0.0602588, -0.0233009, -0.145375, -0.269707, 0.0671255, -0.23983, 0.261132, -0.296686, 0.0266884, 0.102924, -0.139821, 0.408444, 0.164174, -0.0244301, 0.24749, 0.066332, 0.32522, -0.151112, -0.481292, 0.397763, -0.144429, -0.306452, 0.269646, -0.376675, -0.399075, -0.0196997, -0.404141, 0.463866, -0.0929746, -0.320246, 0.0931883, 0.140004, -0.38052, 0.262719, -0.14272, 0.372433, 0.0840938, -0.300165, 0.483825, 0.381893, 0.146504, 0.461821, 0.0685293, -0.11095, 0.152455, -0.480651, 0.207114, 0.114673, -0.052385, 0.343196, -0.00474563, -0.220634, -0.122333, -0.0960265, 0.0287027, 0.103931, -0.2116, -0.32757, 0.403134, -0.191, 0.0254372, -0.380703, -0.285791, 0.115314, 0.434538, 0.215262, 0.0576952, -0.256432, 0.361324, 0.430998, 0.029252, -0.0855281, -0.348415, -0.26278, -0.275384, 0.34872, -0.349025, 0.104633, -0.260521, 0.266991, 0.205252, 0.00395215, 0.169546, 0.390042, -0.339991, 0.405881, -0.389492, -0.0614795, -0.138905, -0.218894, 0.158101],
      [0.499695, 0.245537, -0.302271, -0.178396, 0.037431, -0.154439, 0.451567, 0.390927, 0.154286, -0.187674, -0.359096, -0.254143, -0.311884, 0.108722, 0.353755, 0.0993835, -0.0231178, 0.197562, 0.177877, 0.164296, -0.141621, 0.0417951, 0.201254, 0.153554, -0.329432, 0.104297, 0.0117344, -0.219962, 0.251366, 0.347987, -0.302759, 0.256615, -0.061449, 0.235679, -0.154347, 0.296197, -0.429899, -0.269677, -0.455199, 0.111652, 0.483917, 0.294824, 0.382717, 0.415891, -0.482208, -0.107959, 0.447142, 0.421781, 0.00975066, -0.0151524, 0.326044, -0.157765, -0.202414, -0.463836, 0.107288, -0.109851, 0.21923, 0.00889615, 0.37878, 0.278405, 0.112537, 0.365932, 0.228385, 0.219901, -0.184591, 0.0700858, 0.244041, 0.427519, 0.165792, 0.0843379, -0.486419, 0.114093, -0.498505, -0.128468, -0.375057, -0.00737022, -0.339503, 0.394589, -0.33401, 0.275933, -0.0193945, 0.116382, 0.224662, -0.323084, 0.299768, -0.00019837, 0.388791, 0.408506, -0.0441755, -0.492279, -0.253746, 0.183523, -0.213309, -0.396939, 0.385006, 0.214927, 0.130299, -0.251274, -0.107105, 0.215537],
      [0.111499, 0.488922, -0.307093, -0.265923, 0.257714, -0.331172, 0.257317, 0.322718, 0.299402, -0.118519, 0.147877, -0.31283, -0.277123, 0.238151, 0.100879, 0.188864, -0.485504, 0.350154, 0.352718, -0.310968, 0.160634, 0.328822, -0.360317, -0.450957, -0.352474, -0.214499, 0.198111, -0.369778, 0.461577, -0.168477, -0.235679, 0.293939, -0.410978, 0.0782037, -0.425352, 0.401456, -0.483703, -0.363124, 0.365444, 0.314112, 0.229698, 0.118854, 0.373012, -0.106769, 0.215506, -0.364528, 0.333644, -0.499817, 0.460112, -0.201895, 0.483734, -0.00373852, 0.449767, -0.282006, -0.440428, -0.257195, 0.170858, 0.00654622, -0.202506, -0.398831, 0.109699, -0.224967, -0.0661489, -0.0673696, 0.252647, -0.3652, 0.204947, -0.401456, 0.0859554, -0.30282, 0.347102, -0.0397504, -0.403989, -0.426481, -0.403348, -0.12093, 0.269158, 0.375149, -0.310053, -0.283715, 0.0916929, -0.286676, -0.136708, 0.333308, -0.450102, -0.300531, -0.146992, 0.0913877, -0.369808, -0.0551622, -0.104572, -0.148122, -0.181143, -0.439207, -0.273095, -0.0238502, 0.102252, 0.158681, -0.416257, 0.325495],
      [-0.107562, -0.295373, -0.30047, 0.126789, 0.331812, 0.380642, -0.314936, -0.372463, 0.1863, -0.439879, -0.20629, 0.40231, -0.00312815, -0.0908383, -0.183493, 0.367061, -0.195395, -0.406339, 0.0444502, -0.0621509, 0.150502, 0.279748, 0.268548, 0.0306864, 0.0755486, 0.13332, -0.220206, 0.0615711, 0.120808, -0.179495, 0.369289, -0.0534837, 0.327265, -0.492767, 0.327967, 0.10155, 0.235923, -0.1404, 0.446867, 0.442717, -0.112201, 0.0435347, 0.0170141, 0.385983, -0.176046, -0.274865, -0.170614, -0.152608, 0.0853755, 0.0703604, 0.175069, 0.242943, 0.213065, -0.254753, -0.154958, 0.488678, 0.248039, -0.0841853, 0.130299, 0.000564592, -0.26867, 0.24807, -0.178121, -0.305353, -0.296075, -0.091998, 0.210807, -0.0130161, -0.293085, -0.438322, 0.0880612, -0.206503, -0.218772, 0.375118, -0.255333, -0.469726, 0.467925, 0.0142674, -0.0283059, 0.113361, -0.192007, -0.354823, 0.0601062, -0.0413373, 0.342494, -0.0660878, -0.199087, -0.017716, 0.112415, 0.0464339, 0.485199, -0.399808, -0.341273, -0.351253, -0.0961486, -0.271569, 0.0225379, -0.0930967, 0.348018, -0.216971],
      [-0.233787, 0.129475, 0.456786, 0.155416, 0.345515, -0.0148778, -0.00480667, 0.384518, 0.374783, -0.474395, -0.140461, -0.0130772, 0.230979, -0.247063, -0.323176, 0.214621, -0.208914, 0.169027, -0.426023, -0.180471, 0.432066, -0.224204, 0.177999, 0.0536668, 0.0308084, 0.0752434, -0.384274, -0.33108, -0.0356914, 0.0693228, -0.485778, -0.0827204, 0.109546, 0.259972, 0.000412, -0.449309, -0.156606, -0.350887, -0.298761, -0.178915, 0.0428938, -0.261254, -0.256371, 0.480468, 0.0849788, -0.469176, -0.245415, -0.219291, -0.153462, -0.472716, -0.138966, 0.473876, -0.295404, -0.269921, -0.310053, -0.188192, -0.463927, -0.358852, 0.368252, -0.45349, -0.282067, 0.262505, -0.477111, -0.0700552, 0.127155, 0.095996, 0.280908, -0.285974, 0.140645, 0.143666, 0.269127, 0.150777, -0.36465, -0.0925474, -0.385434, -0.00791955, -0.0117344, 0.389279, -0.0558336, 0.489929, 0.0763115, 0.091113, 0.384945, 0.396268, 0.276482, 0.0149083, -0.436277, -0.0370037, 0.465697, -0.337367, -0.392422, -0.0578478, 0.0208899, 0.0362102, 0.143422, -0.414335, -0.180929, -0.362392, 0.298181, -0.354549],
      [-0.202719, 0.409818, 0.0934935, 0.157826, -0.226402, -0.402036, 0.399442, -0.317286, 0.31402, 0.14568, -0.358455, -0.49826, 0.287652, 0.0470443, -0.0609912, -0.141041, 0.0636464, -0.203848, -0.0891293, 0.498566, -0.48883, 0.387234, -0.323664, -0.335414, -0.000625629, 0.314356, -0.145466, 0.101337, 0.397366, -0.428343, -0.435423, 0.0528123, 0.0742973, -0.346644, 0.425687, 0.263237, -0.100726, -0.446501, -0.443113, -0.0233314, 0.241508, -0.233695, -0.422605, -0.0626698, -0.0299234, 0.285913, -0.393674, 0.38937, 0.454192, -0.393643, 0.262871, 0.0768303, -0.437101, -0.2781, -0.333949, 0.24395, -0.33462, 0.126637, 0.435179, -0.3652, -0.369167, -0.185324, -0.310785, 0.493622, -0.171682, 0.280236, 0.0474105, -0.435606, 0.127033, -0.482665, -0.37112, 0.0914182, -0.103931, 0.020249, 0.0527818, -0.181265, 0.00459304, -0.216941, 0.438261, -0.00944548, -0.178274, 0.29989, 0.404386, 0.350948, 0.216666, -0.435118, 0.0703604, 0.144093, -0.441527, 0.0722221, 0.0553148, 0.114124, -0.283654, -0.184011, 0.478393, -0.494812, 0.0594043, 0.290399, -0.0412763, 0.0614185],
      [0.340144, 0.0912961, 0.238792, 0.26043, 0.0500351, 0.042497, 0.338618, -0.169698, 0.325465, -0.327021, -0.112232, 0.275811, -0.441008, 0.000350963, -0.471191, -0.135548, -0.356807, -0.457854, 0.404386, 0.363857, -0.029313, 0.316034, 0.156941, 0.041551, 0.43405, -0.160512, -0.0708487, -0.334834, 0.425779, 0.130146, 0.363582, -0.497742, -0.161489, -0.294427, -0.397244, 0.320429, 0.0648366, -0.416654, 0.289361, 0.387204, -0.00270089, 0.28106, -0.434141, 0.470214, 0.028489, -0.183767, 0.0749077, -0.163015, 0.0510117, -0.293481, -0.0409711, 0.25515, 0.457427, -0.0305643, -0.139149, -0.00773644, 0.140278, 0.122608, -0.0770745, -0.184133, 0.492218, 0.183615, -0.21218, -0.00639363, 0.405759, -0.330042, -0.401883, 0.293023, 0.273492, -0.400693, -0.00355541, -0.0182958, -0.012009, 0.489227, 0.125324, -0.172811, -0.058153, 0.357234, -0.372677, 0.0971252, 0.027665, -0.279046, -0.354946, -0.440977, -0.362026, -0.402036, -0.178884, 0.48056, -0.33462, -0.494171, 0.298029, -0.370846, -0.497528, 0.462157, -0.281579, 0.272546, 0.0417951, -0.0155187, 0.224845, 0.178243],
      [-0.476257, 0.418394, -0.205618, -0.000381481, 0.133839, -0.326289, 0.0979492, -0.487884, 0.273888, -0.382321, 0.280084, 0.124439, -0.233818, 0.197653, 0.413114, 0.0337992, -0.0670034, -0.139241, 0.0692618, -0.0624866, -0.403439, -0.445647, 0.320826, 0.0328227, 0.0791803, -0.274316, -0.259972, 0.0169836, 0.203116, 0.322016, 0.399228, 0.0872677, 0.290582, -0.209433, -0.129414, -0.0590381, 0.1639, 0.078692, 0.226432, -0.224723, 0.145344, -0.36642, 0.0390179, 0.287561, 0.0571154, 0.402554, 0.380612, -0.324976, 0.221549, -0.167196, -0.176565, -0.365078, 0.460875, -0.128315, 0.439817, 0.364589, 0.0973693, -0.0335856, -0.19805, -0.43881, -0.0467391, 0.0642567, -0.0178076, 0.422086, 0.350887, -0.387539, -0.447264, -0.355525, 0.112445, -0.441649, -0.414121, 0.425687, -0.439756, 0.349178, -0.346095, 0.46292, -0.483489, -0.0678579, -0.17098, -0.046556, 0.303583, -0.245445, -0.316462, -0.405454, -0.256371, -0.23629, 0.289727, -0.416471, 0.158986, 0.406858, 0.21984, -0.382382, 0.371914, -0.368801, -0.453887, -0.105884, -0.295373, -0.115894, -0.159139, 0.110218],
      [-0.124134, 0.00553911, 0.17983, 0.0114902, -0.142476, -0.0559557, 0.491302, -0.161367, -0.430418, -0.363124, 0.487274, 0.186697, -0.454772, 0.24221, -0.049089, 0.463866, -0.182302, 0.418271, 0.165456, -0.42169, -0.0798517, 0.323237, -0.0859249, -0.0616626, -0.114216, -0.384701, 0.480041, 0.452086, 0.247826, 0.452757, -0.353572, -0.472289, 0.0394452, 0.493713, -0.3034, 0.0735038, -0.206107, -0.103626, 0.413663, 0.49765, -0.455657, 0.318995, 0.0808283, -0.291711, -0.175985, -0.0802789, 0.481292, 0.113697, -0.333888, 0.356838, -0.101733, -0.377956, -0.396176, -0.211539, 0.115009, -0.358486, -0.329676, -0.127125, 0.41464, 0.0803705, 0.398923, -0.231803, -0.419614, 0.346767, -0.177328, 0.13271, -0.104511, 0.348933, 0.474914, 0.124561, 0.143147, 0.495025, 0.38876, 0.401975, -0.393521, -0.306726, 0.0974303, 0.123157, 0.068804, 0.351924, -0.365841, -0.0536973, -0.186758, 0.379147, -0.467895, 0.0296182, -0.376949, 0.183126, -0.175466, 0.0312967, -0.218619, -0.327967, 0.0446333, 0.109546, 0.0714896, 0.254204, 0.225547, -0.0774102, -0.223472, -0.162313],
      [-0.407376, -0.0106052, 0.286126, -0.324458, 0.118091, -0.033372, -0.408292, 0.00642415, 0.491455, 0.219993, -0.117084, 0.313623, 0.113086, 0.274865, -0.189901, 0.372555, -0.116565, 0.156667, -0.476318, 0.458586, 0.202841, 0.390774, -0.325953, 0.347102, -0.0282449, 0.0025483, 0.411588, 0.313501, -0.409513, -0.482604, 0.386685, 0.133168, -0.0405133, -0.0392315, -0.250328, 0.0815302, 0.479156, -0.142018, 0.151051, -0.0660573, 0.0498215, 0.234458, -0.258873, -0.034196, 0.0719474, -0.384426, 0.17037, -0.0474715, 0.44586, 0.026719, -0.410916, 0.169485, -0.428037, -0.00669881, -0.35229, 0.392056, 0.350703, -0.459319, 0.496643, -0.104389, 0.182394, 0.194327, -0.213797, 0.455596, -0.0325175, -0.0204932, -0.333125, 0.347377, 0.106342, 0.42172, -0.21099, 0.346339, 0.499359, -0.453734, 0.303003, -0.272149, -0.453124, -0.121357, -0.140797, 0.267388, 0.149403, 0.444151, -0.391934, 0.240257, -0.292779, -0.231803, 0.199973, 0.421873, 0.120777, -0.123798, -0.214743, 0.0876034, -0.209586, 0.293573, 0.0143895, 0.0128636, -0.383419, 0.0456099, 0.0376751, 0.473083],
      [0.177206, -0.0502792, 0.421323, -0.0801263, 0.470641, -0.0789972, 0.0656911, -0.228355, 0.103168, 0.446745, -0.363948, 0.0772881, -0.126392, -0.0493332, 0.181295, -0.489471, 0.0808283, 0.356746, 0.250175, 0.245323, -0.47644, 0.0886715, -0.108478, -0.0446028, -0.499268, 0.0703604, -0.34579, -0.185385, -0.188864, -0.274438, -0.412992, 0.496857, -0.246422, -0.0218055, 0.238823, 0.175832, 0.126942, 0.252068, -0.341609, -0.474548, 0.230003, 0.470946, 0.39465, -0.28045, -0.138417, 0.0587024, 0.496307, 0.431974, 0.320551, -0.0608386, -0.487762, -0.163533, 0.405728, -0.463836, 0.491363, -0.393094, 0.415891, -0.226493, -0.017655, -0.082873, 0.149922, 0.0750603, 0.034135, 0.440947, -0.0933409, 0.36462, 0.195517, 0.352199, 0.484893, 0.0660268, -0.48471, 0.324702, 0.183462, 0.103076, -0.457671, -0.467742, -0.198813, -0.10036, 0.325495, -0.351222, -0.363094, 0.379543, 0.413541, -0.151967, 0.489502, -0.0334025, -0.144704, -0.196158, -0.342311, -0.415403, 0.199637, -0.309961, -0.0596179, -0.342555, 0.495392, 0.180471, -0.363643, 0.108936, 0.291345, 0.448973],
      [-0.443785, 0.38934, 0.428434, -0.0290078, 0.2228, -0.0772576, -0.0320597, 0.0387432, 0.223685, -0.355556, 0.0810419, -0.40347, 0.162374, 0.282983, -0.378811, -0.377071, 0.142384, 0.0668508, -0.0580615, -0.403592, -0.23278, -0.275445, -0.103198, 0.495514, 0.140461, 0.484649, -0.160756, -0.201315, -0.13448, 0.0756096, -0.377163, 0.484558, 0.0460372, -0.274071, -0.398923, 0.0315104, 0.285424, 0.164205, -0.372494, 0.41818, -0.312769, -0.38113, 0.05562, 0.123035, -0.145039, -0.181478, -0.261101, 0.124561, -0.107807, -0.00840785, 0.0309, -0.0986816, 0.402371, -0.133351, -0.214896, 0.431822, 0.489013, -0.327815, 0.355098, 0.19454, -0.244346, 0.136769, -0.405698, 0.16805, 0.305841, 0.488861, -0.143696, -0.169179, -0.256951, 0.456938, -0.00538652, 0.161397, 0.170797, 0.269616, 0.362728, -0.361751, 0.192618, -0.344691, -0.185873, 0.239982, -0.0880001, -0.157369, -0.297632, 0.445006, -0.0674917, -0.43997, -0.119037, 0.231895, 0.357601, 0.0360576, -0.296564, 0.0791803, -0.209189, -0.000808741, 0.0233009, -0.0346843, 0.335688, -0.322016, 0.194052, 0.368892],
      [-0.491211, 0.440397, 0.344325, 0.484375, 0.399625, 0.0294961, -0.161092, -0.0568712, 0.232841, 0.499023, -0.441862, 0.377041, 0.197928, -0.336604, -0.0585192, -0.149464, -0.0156407, -0.162893, -0.0716422, -0.0719474, -0.218436, -0.165426, -0.0417341, -0.325922, 0.279015, -0.0297098, -0.0293741, -0.34695, -0.333888, 0.0586413, 0.404904, -0.0705435, -0.367611, 0.414151, 0.200522, 0.0676748, 0.367275, -0.148762, -0.203055, 0.132221, -0.439848, -0.315668, 0.133686, -0.312494, 0.400601, -0.272057, -0.349879, -0.201956, -0.422086, 0.296503, 0.285791, 0.0282144, 0.281701, 0.204428, 0.480041, 0.442534, 0.201315, -0.233787, 0.172384, -0.39462, -0.473754, -0.203726, -0.197745, -0.418699, -0.054033, -0.390896, 0.309137, -0.0653249, -0.350154, 0.0191809, 0.132466, -0.270013, 0.327479, 0.340876, 0.211692, -0.468322, 0.168172, 0.388699, -0.0137486, 0.404263, -0.138539, 0.477081, 0.395627, -0.0879391, -0.403226, 0.420469, -0.120746, 0.119648, 0.0635853, -0.466674, 0.376583, -0.408597, 0.451323, -0.3699, 0.327082, 0.391873, 0.449461, 0.0252846, -0.329798, 0.0853755],
      [0.41879, -0.317072, -0.24102, 0.38702, 0.481017, -0.246239, 0.341914, 0.430906, -0.119984, -0.152608, 0.414975, 0.213462, 0.0475021, -0.479492, -0.340236, -0.458708, -0.0849483, -0.170248, 0.257988, -0.278924, -0.0856807, 0.331751, -0.108783, -0.44058, -0.0230262, 0.0831477, -0.258843, 0.363033, -0.465423, -0.359462, 0.48941, -0.0615406, -0.48114, 0.0606861, 0.317621, -0.40762, 0.361476, -0.0999023, -0.0925474, 0.131489, -0.00605792, 0.215476, 0.440519, -0.137684, -0.151997, -0.436552, -0.401547, -0.408414, -0.144734, 0.000686666, -0.437071, -0.374081, 0.447386, 0.0837886, 0.0156102, -0.228019, -0.44406, -0.130573, 0.13805, 0.33636, -0.387326, -0.0857723, -0.388058, 0.125721, -0.450835, 0.274834, -0.381069, 0.446715, -0.202933, -0.492157, -0.159352, 0.105976, 0.288049, -0.330042, 0.458769, 0.410123, 0.453673, 0.317835, 0.154866, 0.165822, 0.225639, -0.491974, 0.110614, -0.320307, 0.0355998, -0.202719, 0.00764489, -0.241569, -0.184866, 0.242149, 0.0276345, -0.291406, -0.0040437, 0.399319, -0.147816, 0.336909, -0.490356, 0.325404, -0.337062, -0.0500656],
      [-0.220526, -0.247544, -0.394632, -0.477852, 0.165475, -0.193927, 0.426406, -0.0906747, 0.0640596, -0.19894, 0.307984, 0.0925715, 0.144153, 0.0629632, 0.170067, -0.355079, -0.362482, 0.426067, 0.478175, -0.351251, 0.253566, 0.224161, 0.192893, -0.313721, 0.185871, 0.267738, -0.236654, -0.164721, 0.131435, -0.0895748, 0.14669, -0.322852, 0.312721, -0.028428, -0.204835, 0.292192, 0.424844, -0.217031, -0.33547, 0.257318, -0.324789, 0.17206, 0.224769, -0.36257, -0.231807, 0.474385, 0.409909, 0.0653843, -0.0887008, -0.483221, -0.319153, -0.431239, -0.195607, -0.373128, 0.0006872, -0.253111, -0.342423, -0.362506, -0.185034, -0.325534, 0.173927, -0.120226, 0.0849526, -0.063718, -0.440872, 0.182033, 0.262448, -0.388888, -0.48259, -0.113229, 0.30007, 0.278994, 0.260499, -0.213977, -0.336784, 0.018663, 0.476391, 0.256314, 0.297152, 0.410774, 0.385674, 0.096088, -0.341172, -0.45835, -0.310702, -0.348567, -0.294611, -0.0178689, -0.414093, -0.25237, -0.10928, -0.187967, -0.201162, -0.283424, 0.174627, -0.375785, -0.479717, 0.382934, -0.00121187, 0.487124],
      [-0.222308, -0.298765, -0.438595, -0.42675, -0.479518, 0.393014, -0.0445009, -0.502002, 0.281938, 0.250334, -0.242997, 0.0331657, -0.137107, 0.26775, 0.0351067, 0.418617, -0.280949, -0.033351, 0.442786, 0.426407, -0.273974, 0.363724, 0.12832, 0.31802, 0.252994, -0.0725895, -0.287473, -0.151955, 0.17517, -0.272783, 0.334425, 0.284277, -0.0989599, 0.235831, -0.374366, 0.370653, 0.301872, 0.471984, -0.279588, 0.380641, -0.235089, -0.0697881, 0.276603, 0.0406453, 0.174689, -0.33711, 0.397974, -0.308289, -0.0806064, 0.13958, -0.274006, 0.0166231, -0.124261, 0.38041, 0.412324, 0.303478, 0.438041, -0.10489, 0.0680499, 0.304677, 0.482875, -0.301534, -0.148114, 0.284789, 0.400416, 0.297355, 0.38118, 0.00200852, 0.0746953, -0.281862, -0.209018, -0.282383, -0.103838, 0.415172, -0.269478, 0.188869, -0.268192, 0.46621, 0.32056, -0.323418, -0.0226549, 0.337078, 0.201025, -0.0528423, -0.47762, 0.0584277, -0.494688, 0.249648, -0.262499, 0.133138, -0.130155, 0.336895, -0.465646, -0.414074, 0.441067, -0.494207, 0.283113, -0.115113, -0.183821, 0.480099],
      [0.0818446, 0.228335, 0.401929, -0.40752, 0.0851123, -0.389662, 0.445905, -0.441017, -0.286007, -0.409357, -0.0237281, -0.202809, 0.289646, 0.137198, -0.426197, -0.485316, -0.322834, -0.283999, 0.3396, 0.443723, 0.222143, 0.302516, -0.125438, -0.194361, -0.234785, 0.354797, 0.268597, 0.31283, -0.344444, -0.123885, 0.116746, 0.199439, -0.268337, 0.307179, -0.482746, 0.167062, 0.359208, -0.373395, 0.0685213, 0.450914, 0.359215, 0.292288, -0.146567, -0.233905, 0.0893667, 0.319585, 0.489175, 0.337569, 0.395221, 0.126749, 0.0520943, -0.11795, -0.381104, -0.291835, 0.150714, -0.381481, -0.385805, -0.463945, -0.132468, 0.277003, -0.285984, -0.424008, -0.182995, 0.0702004, -0.229556, 0.299225, 0.0790091, -0.282763, 0.140678, -0.320283, 0.260413, 0.445435, -0.353368, 0.184034, 0.439362, -0.0287196, -0.342073, -0.215423, 0.220275, -0.48239, -0.00226645, -0.0471037, -0.283155, -0.200731, 0.0331299, -0.342014, 0.499787, 0.0440525, -0.403537, 0.371448, -0.329345, -0.0368245, 0.0314608, 0.0803281, -0.150764, -0.200609, 0.197372, 0.212188, 0.0876296, 0.241895],
      [0.18415, 0.4417, -0.357146, -0.110692, 0.317735, -0.201479, -0.465658, -0.347851, -0.110351, 0.171853, 0.274995, 0.403541, -0.139422, -0.362639, 0.0795787, 0.474623, -0.314289, -0.22572, -0.328148, -0.293659, 0.34197, -0.31285, 0.257855, 0.451905, 0.282309, -0.0380343, -0.448081, -0.473932, 0.476785, -0.316615, -0.235703, 0.280751, 0.380322, 0.436066, -0.39027, -0.44675, -0.0233194, 0.308453, 0.304619, -0.325013, -0.298704, -0.113945, -0.449384, 0.47854, -0.469197, 0.268776, -0.418039, 0.323702, -0.07167, 0.028031, 0.0888276, 0.03071, -0.149481, 0.260656, 0.294372, -0.0635068, -0.230093, -0.443529, -0.0907402, -0.108982, -0.359602, 0.000752062, 0.152101, 0.225556, -0.0749344, 0.185776, -0.266514, -0.22741, -0.397306, 0.185152, -0.141273, -0.119985, 0.109857, -0.398139, 0.244562, 0.375441, 0.431209, -0.478494, 0.104585, -0.389278, 0.0149115, -0.477294, 0.16073, 0.409662, -0.162762, -0.298014, -0.387328, 0.116874, 0.343981, -0.355203, 0.173049, -0.431293, -0.479318, 0.445544, 0.0772213, 0.105029, -0.184549, -0.322429, 0.00441708, -0.445492],
      [0.333276, 0.128499, 0.381652, -0.183684, -0.172066, -0.242894, -0.0562673, -0.16912, 0.145383, 0.0191497, 0.0623288, -0.479011, 0.409976, -0.368725, 0.0945405, -0.14482, 0.207444, -0.183497, -0.0711138, 0.32779, -0.34044, 0.327332, -0.0929043, -0.0442121, 0.372006, 0.422745, -0.103741, 0.182938, 0.465031, -0.200347, 0.254741, 0.0177708, -0.447133, -0.28364, -0.150685, -0.0565974, -0.251329, -0.101543, 0.0254695, -0.0523638, -0.353483, -0.414143, -0.326088, 0.490772, 0.370921, -0.48886, 0.143526, -0.391691, -0.46537, -0.0806949, 0.275463, -0.252717, 0.234866, -0.461253, 0.450945, -0.0941973, 0.100219, -0.388614, -0.473045, -0.424954, 0.233712, -0.128897, -0.131367, -0.255664, 0.245176, -0.436332, 0.333057, -0.126343, 0.256672, 0.406253, 0.285721, -0.0170616, -0.13791, -0.360349, -0.430464, -0.458053, 0.185408, 0.0239029, -0.423915, -0.453752, -0.173312, -0.242939, 0.148965, 0.460864, -0.0867208, -0.399497, -0.351133, 0.291318, 0.0345078, -0.210908, -0.0590879, -0.477149, 0.336964, 0.0665617, 0.394298, 0.137032, 0.406433, -0.359059, -0.157866, -0.386651],
      [0.234201, -0.461402, -0.149461, 0.422507, 0.225476, -0.423641, -0.244059, -0.345182, 0.365043, -0.137516, -0.436632, -0.0338407, 0.322695, 0.208177, 0.188465, 0.402223, 0.237021, -0.127169, 0.0493205, -0.485611, -0.21486, -0.319393, 0.0718917, 0.337311, 0.130814, -0.0863943, -0.336555, 0.416491, -0.0647044, 0.336778, -0.258824, -0.216928, 0.3848, 0.294075, -0.284187, 0.00222048, 0.127766, -0.46748, -0.489575, 0.074547, 0.339597, 0.339336, -0.444423, -0.43135, -0.317291, -0.469563, -0.253296, -0.469466, 0.312814, 0.388126, 0.494982, 0.481702, -0.0874625, -0.301545, -0.269133, 0.47741, -0.360165, -0.242521, -0.140663, 0.0581621, 0.161941, 0.365843, -0.185277, 0.263214, -0.353043, -0.194325, -0.00564548, -0.384471, -0.247024, -0.138724, 0.320837, 0.179773, -0.345044, -0.18521, 0.209514, 0.486469, 0.0147395, 0.487579, -0.416013, -0.404541, -0.00302864, 0.146227, -0.154101, 0.0177831, 0.274717, -0.409747, -0.0753576, -0.195684, 4.58953e-05, 0.115718, 0.227089, -0.488214, -0.141989, -0.49932, -0.322196, 0.160941, 0.00766428, 0.0493974, -0.323375, 0.303052],
      [0.0090333, 0.130357, 0.451471, 0.302442, -0.000393104, -0.311243, -0.347553, 0.419678, -0.197652, 0.149339, 0.32857, -0.0632477, 0.406296, 0.180906, -0.268441, -0.258814, 0.299156, -0.133635, -0.399542, 0.255605, 0.491782, -0.0926958, 0.207975, 0.309401, 0.465109, 0.347627, 0.300481, 0.314998, 0.217407, -0.156759, 0.125824, 0.117087, 0.307996, -0.423912, 0.419045, 0.147143, -0.343928, 0.100297, 0.463029, 0.192795, -0.165366, -0.447353, 0.0292577, -0.301177, -0.182666, -0.429469, 0.31413, -0.463453, 0.0871016, 0.308462, 0.0915733, 0.0606289, -0.321231, 0.355354, -0.381156, 0.178858, 0.0768803, -0.144141, -0.373557, 0.23231, 0.287783, 0.446757, 0.40947, 0.12528, -0.184179, 0.252189, -0.307934, 0.21191, -0.355514, -0.139203, -0.290001, 0.371609, 0.312761, 0.423342, 0.250812, -0.00144589, -0.211224, -0.405246, -0.430225, -0.0134363, -0.414597, 0.465841, 0.339722, -0.324027, -0.287118, -0.323196, -0.0910095, -0.0547093, -0.350795, 0.362471, 0.0010703, 0.201091, 0.432456, 0.12682, -0.140945, 0.278923, -0.455074, 0.114671, 0.198228, -0.397211],
      [-0.274072, -0.475721, -0.114824, 0.0498198, -0.0814524, 0.362197, 0.0324222, -0.0223129, 0.184611, 0.307772, 0.176423, -0.486095, -0.493888, -0.484393, -0.446873, 0.0389818, 0.377894, -0.418343, -0.0933947, 0.443386, -0.202394, -0.339812, 0.48065, 0.0712145, 0.226688, 0.314531, 0.0217936, -0.18351, -0.332355, -0.301476, -0.227129, 0.022788, -0.309263, 0.485838, 0.462452, -0.396639, 0.152811, -0.305412, 0.357809, -0.138888, -0.347136, -0.0157912, 0.231731, -0.299417, 0.159306, 0.462727, 0.270122, -0.499205, 0.16058, -0.204662, 0.224647, 0.121308, -0.35547, 0.0546705, 0.366536, -0.0599888, 0.117767, -0.127993, 0.396906, -0.195711, -0.430459, 0.386319, -0.361058, 0.111098, 0.497127, 0.201516, -0.229083, -0.306676, -0.121679, 0.421943, 0.0335312, -0.0649744, 0.242716, -0.327453, 0.21573, -0.270959, -0.44877, 0.0951357, -0.444585, 0.43325, 0.310174, 0.286324, -0.280027, -0.0946889, -0.482956, 0.370964, 0.0635408, -0.478964, -0.353944, -0.0192438, 0.272907, 0.148937, -0.275837, 0.219849, -0.396102, 0.149472, 0.230532, -0.314642, -0.247488, 0.422521],
      [0.257814, 0.0472018, -0.161654, -0.0139873, -0.496456, 0.0138169, -0.0765803, -0.41127, 0.365704, -0.151178, -0.1937, -0.451271, -0.164864, 0.158793, -0.256452, -0.224343, 0.440441, 0.127305, -0.492188, -0.344425, 0.201355, 0.399112, 0.367004, 0.0874883, -0.402461, 0.0832608, 0.0836236, 0.461396, -0.315348, -0.151119, -0.0722453, -0.325926, 0.00140051, -0.126547, -0.340511, 0.118959, 0.494276, -0.266795, -0.434082, -0.317881, -0.276502, -0.419099, 0.402501, -0.257019, -0.284947, 0.0873486, 0.437159, 0.2186, -0.0181039, 0.392156, 0.4269, 0.494888, -0.476723, 0.118398, -0.346415, 0.462065, -0.126628, 0.388557, -0.137097, -0.493492, 0.0475479, -0.0671553, 0.38147, -0.464167, -0.438539, -0.175446, -0.0890404, -0.0744274, 0.415849, -0.309636, -0.275812, -0.425948, 0.181813, -0.284218, -0.344185, -0.119726, -0.175543, -0.4718, -0.102764, -0.266453, -0.139673, 0.269878, 0.25434, -0.472457, 0.347548, -0.41859, -0.0179352, 0.148865, -0.250503, -0.387477, -0.142, 0.00248487, 0.134349, 0.00686309, 0.138471, -0.0363166, 0.00119171, -0.126518, -0.426682, 0.439116],
      [-0.0248973, 0.0373522, 0.189314, -0.117066, 0.0537373, -0.440074, -0.0915882, -0.119894, 0.0907545, -0.273106, -0.00671547, -0.0327177, 0.0168086, -0.430096, -0.36823, 0.493023, 0.28969, -0.291287, -0.481166, 0.263238, -0.131711, 0.205706, -0.13893, -0.381833, 0.145994, -0.388373, 0.347397, 0.367988, 0.122669, 0.0172311, 0.177561, -0.154519, 0.248401, 0.0291595, 0.0443412, -0.129535, 0.423927, -0.334454, 0.161182, -0.242012, 0.126797, -0.504867, 0.204593, 0.319524, 0.307971, -0.369031, 0.388921, -0.0984635, 0.40941, -0.372752, 0.392392, 0.317556, 0.375203, -0.452875, 0.425883, -0.110971, -0.347802, -0.0577631, 0.173006, 0.432544, 0.196639, -0.0308714, -0.127926, 0.28356, 0.446105, 0.129883, 0.169001, 0.251485, 0.343575, 0.489477, 0.273041, -0.338079, 0.367397, -0.350905, -0.068798, 0.339425, 0.429338, -0.321536, 0.269784, -0.388571, -0.0274609, 0.141705, 0.0255904, 0.288878, -0.0135903, 0.111229, 0.382981, -0.303354, -0.139715, 0.171085, 0.0515233, -0.332628, -0.40704, 0.387703, 0.215259, -0.490582, -0.384836, 0.300522, -0.434904, 0.056786],
      [-0.0426074, -0.0538254, 0.386494, 0.413968, 0.0530197, 0.280818, 0.229781, 0.266279, 0.121964, 0.0285298, -0.176528, 0.106599, 0.330536, -0.0339435, -0.428746, -0.0312899, 0.342013, 0.383234, 0.380516, 0.383946, 0.314634, 0.061761, -0.334389, 0.394894, -0.111612, 0.281542, 0.329254, -0.473796, 0.238941, -0.172759, -0.218597, -0.186728, 0.0246383, -0.00918234, -0.0698844, -0.210744, 0.390705, -0.454527, 0.184315, 0.493339, 0.00502589, -0.229943, 0.450868, 0.444115, 0.025348, 0.461059, 0.139465, -0.311988, 0.10966, -0.104436, 0.1562, -0.244736, 0.412659, -0.14677, -0.0875702, -0.325138, -0.403216, -0.390611, 0.309707, -0.0152912, -0.182807, -0.0192739, -0.231666, -0.281541, -0.266608, 0.219367, 0.185051, 0.40386, -0.494987, 0.112333, -0.0296382, 0.0802844, -0.211547, -0.0492814, 0.0430021, 0.277311, -0.250464, -0.48353, -0.205714, 0.0285256, 0.0223851, 0.0862685, 0.145298, -0.13425, -0.204834, 0.449462, 0.496795, -0.175267, -0.295411, -0.10592, -0.238988, 0.43346, -0.0791657, 0.195292, 0.348326, -0.260324, 0.0989647, -0.379112, 0.154469, 0.262445],
      [0.449306, -0.439488, -0.121297, 0.014855, 0.00183883, -0.170703, 0.189271, 0.0120492, 0.139515, -0.097352, -0.201748, 0.0835182, 0.399702, 0.433263, 0.477079, 0.115673, -0.186051, -0.42993, -0.498001, -0.487142, -0.0970957, -0.0335957, -0.345738, 0.191092, -0.315257, -0.234794, 0.202099, -0.466239, -0.309359, -0.376637, -0.0764926, 0.447232, -0.0520549, -0.307792, 0.0889053, 0.331002, -0.0234213, -0.37586, 0.488863, 0.0886595, -0.194527, -0.44458, 0.38336, 0.114467, -0.040509, 0.146357, -0.446096, 0.314069, 0.466908, -0.447294, 0.272099, 0.0861249, -0.156129, 0.418543, 0.319806, 0.328155, 0.126285, -0.110973, -0.0334548, 0.448856, -0.16737, -0.37158, -0.0087151, 0.341204, -0.00997427, -0.223214, -0.335231, 0.403724, 0.130681, -0.0143232, -0.232397, -0.451467, 0.271465, 0.4077, -0.420759, 0.163127, -0.0542779, -0.304819, -0.13472, 0.153721, 0.157924, -0.0110726, -0.0967133, -0.0802332, 0.457717, -0.0506155, 0.469725, 0.361965, -0.135337, -0.273431, -0.15928, -0.12172, -0.103445, -0.0298627, -0.200688, 0.369259, -0.415102, -0.192089, -0.401604, 0.243491],
      [0.244642, 0.49749, -0.0672318, -0.391697, 0.417158, 0.159722, -0.24852, 0.279407, 0.174612, 0.287349, 0.0628614, -0.36742, -0.0497334, -0.0688597, -0.46139, -0.0431474, -0.327432, -0.36349, 0.357889, 0.0512105, -0.240254, 0.455019, 0.19235, 0.227592, 0.132839, -0.0694099, 0.213447, 0.272117, 0.219204, 0.116293, 0.0965846, 0.487851, -0.0571769, -0.438198, 0.0141382, -0.326731, -0.273492, 0.31763, -0.355734, 0.128423, 0.494011, -0.0771624, 0.156607, -0.350228, -0.330603, 0.430129, 0.227113, -0.461738, 0.178546, 0.396909, 0.026209, -0.408015, 0.439392, -0.135228, 0.232849, 0.107167, 0.382446, 0.380436, 0.017403, -0.109543, 0.427024, -0.00051557, 0.0546134, 0.232997, 0.497856, 0.266901, -0.482633, -0.0674594, 0.0241119, 0.230695, 0.0804603, 0.299501, -0.0760451, 0.44137, -0.0780433, 0.119048, -0.373386, -0.0494508, -0.291032, -0.303284, 0.037195, 0.296466, -0.383047, -0.169644, -0.397359, -0.461218, 0.318598, -0.18137, 0.239727, 0.223014, -0.0104462, 0.460169, 0.36747, 0.403678, 0.313788, 0.0495213, -0.0857778, -0.395103, 0.44047, 0.396402],
      [-0.391702, -0.371217, 0.174649, 0.361221, -0.167759, 0.390592, -0.376134, -0.473762, 0.126423, 0.109596, 0.446043, 0.0124213, 0.220598, -0.361141, -0.381035, -0.0768887, 0.343073, 0.331355, -0.376967, -0.138932, 0.222138, 0.0406804, 0.434782, -0.0697806, 0.0863525, 0.12056, -0.466491, -0.265921, -0.335749, 0.424344, -0.102252, 0.376155, 0.1844, 0.305597, 0.0065764, 0.459912, 0.375271, -0.382249, -0.163424, 0.089042, 0.46536, -0.284742, -0.131764, -0.133297, 0.183218, 0.448921, 0.0795592, -0.103259, -0.242688, 0.175436, -0.0514084, -0.21746, -0.0838048, -0.253261, 0.454358, -0.372335, -0.111526, -0.483419, 0.075169, 0.0355997, 0.402463, 0.338348, -0.210501, 0.109862, -0.313227, -0.434094, 0.0759395, 0.453602, 0.469994, 0.0524795, -0.0869849, 0.171599, -0.019095, 0.151723, -0.220539, -0.134274, -0.0520402, -0.282347, -0.346808, -0.359554, -0.402156, 0.102037, 0.0134087, 0.0990769, -0.338412, 0.160176, -0.162313, 0.345148, 0.366747, 0.244996, -0.394451, -0.0178757, 0.441886, 0.2103, 0.295859, 0.113571, 0.115446, 0.407552, 0.384821, 0.343335],
      [0.0990478, 0.100909, -0.232902, -0.0820795, -0.225883, 0.0818659, 0.237602, 0.413297, -0.318812, 0.139027, 0.0348369, -0.107898, -0.365322, -0.288171, 0.223197, 0.0437788, -0.0509507, -0.260247, 0.367183, 0.0578173, 0.438749, -0.337733, -0.468841, -0.37637, 0.41821, 0.41879, 0.279748, -0.0692618, -0.29809, 0.44879, -0.322779, -0.331507, -0.395688, -0.308283, 0.288171, 0.0264443, -0.0601367, -0.412992, 0.176931, -0.305994, 0.0230262, 0.0741752, -0.091937, -0.139393, -0.331782, -0.407407, -0.45407, 0.215751, 0.189932, 0.0818049, -0.344935, -0.0511643, 0.402585, -0.0188452, 0.29986, -0.250664, -0.379391, 0.230186, 0.0448164, -0.193289, -0.341456, 0.268303, -0.0456709, -0.189566, -0.16921, 0.034959, -0.407102, -0.0500656, -0.048204, -0.0303507, 0.0249489, -0.085345, 0.336055, 0.0117954, -0.185049, -0.105945, -0.202048, -0.399167, 0.0273904, -0.422391, -0.348018, -0.323756, 0.226646, 0.154775, -0.287408, -0.322504, 0.477233, 0.314966, 0.294244, -0.456023, 0.343562, 0.247673, 0.211386, -0.284783, -0.109882, -0.357723, -0.221549, 0.130665, -0.31869, -0.31167],
      [-0.114765, -0.449644, -0.0171667, 0.252831, 0.229423, 0.205466, -0.477294, 0.196677, -0.458312, -0.204001, -0.25341, 0.354305, 0.378811, 0.00361644, 0.461058, -0.342708, -0.202689, 0.00993377, -0.0272073, -0.462676, 0.353908, 0.496612, 0.0883969, -0.0739311, 0.105213, -0.354732, 0.114551, 0.255089, -0.392148, 0.137593, -0.14214, 0.456084, -0.0814997, 0.155171, -0.375027, -0.0393536, -0.406247, 0.379666, 0.222556, -0.299524, -0.309717, -0.00727866, -0.0427717, 0.107196, -0.235252, -0.324061, -0.364376, 0.112384, -0.12624, -0.388943, -0.435606, 0.147786, -0.426054, 0.479644, -0.449828, 0.144948, -0.0779901, 0.463317, -0.10036, -0.464446, 0.474548, 0.243767, 0.419401, 0.251274, 0.288171, 0.00260933, 0.416074, -0.27633, -0.0804621, 0.421537, -0.303705, -0.115558, 0.425352, -0.317927, -0.433226, 0.165242, 0.362148, 0.466002, -0.165883, 0.497681, -0.21337, -0.0451521, -0.195059, 0.313379, 0.255486, -0.169668, 0.285913, -0.455992, -0.174764, 0.274041, -0.416349, -0.37878, 0.0526292, -0.0323649, -0.495178, 0.476623, -0.00575274, 0.092761, 0.356075, -0.458129],
      [0.235008, -0.327204, 0.0278481, 0.495727, -0.124439, -0.305048, 0.335047, 0.155507, -0.380551, 0.418638, -0.401822, -0.318171, -0.203177, -0.201132, 0.397305, 0.279809, 0.237724, 0.290826, -0.187551, -0.345546, 0.27221, -0.150502, 0.423795, 0.0109409, -0.269646, -0.0699942, 0.311335, 0.0542772, -0.0576952, 0.487457, 0.0551927, -0.0104526, -0.261925, -0.0231483, -0.264611, -0.478179, 0.447783, 0.353328, -0.0679189, -0.143757, -0.098529, 0.0719169, -0.274712, -0.302179, 0.429228, 0.0877255, -0.304895, 0.251671, -0.138874, -0.144154, -0.0783563, 0.222831, -0.472747, 0.331355, -0.0150609, -0.183584, 0.257744, -0.0307169, -0.0349284, -0.262505, 0.382595, -0.275231, 0.442137, 0.191153, -0.268151, 0.0528733, 0.496216, -0.117573, -0.364284, -0.0913572, -0.292688, 0.0164647, -0.0758232, -0.252831, 0.15566, 0.298303, -0.0726493, -0.47647, 0.421201, -0.0670034, 0.475311, -0.307154, -0.415983, -0.374355, -0.101917, 0.210166, 0.224296, -0.418638, 0.0258034, -0.469481, 0.422025, -0.494812, 0.188559, -0.390927, -0.242698, -0.397794, 0.216391, -0.0991394, 0.310205, -0.422514],
      [0.108966, 0.160237, 0.302057, -0.271172, -0.175436, -0.212363, 0.255913, -0.0683462, 0.206656, -0.212912, 0.318628, 0.0113987, 0.264946, 0.293298, -0.250084, 0.352779, -0.490814, -0.0589465, 0.309626, -0.159413, -0.0507675, -0.134877, 0.257408, -0.1404, 0.0947447, -0.299738, 0.353114, 0.29461, -0.0444502, -0.418729, -0.143544, -0.469726, 0.0413984, 0.142872, -0.472777, 0.451506, 0.362087, -0.480163, -0.374783, 0.442961, 0.427335, 0.347011, -0.0898312, 0.389462, 0.246879, -0.240989, -0.35818, -0.324305, 0.330592, 0.390744, -0.420042, 0.186544, -0.311884, 0.376888, -0.0156102, 0.306696, -0.170675, 0.352229, -0.38522, -0.0790582, -0.236076, 0.451567, -0.268975, 0.414029, 0.00169378, 0.309595, 0.0927915, -0.329279, -0.44763, 0.0611438, -0.0401471, 0.0758232, -0.0742058, 0.340999, 0.0920286, -0.485931, 0.131672, 0.283837, -0.250969, 0.370235, -0.320246, -0.475524, -0.30932, -0.470946, -0.420133, 0.197714, 0.176687, 0.375362, 0.341731, -0.0617542, -0.0331584, -0.206137, -0.0248878, -0.119098, 0.320917, 0.169332, -0.0102084, -0.339625, -0.00135807, 0.386563],
      [0.0724052, -0.167562, 0.294122, -0.469817, 0.0450606, -0.100177, -0.162801, 0.406491, 0.088702, 0.421506, 0.124073, 0.222404, 0.174001, -0.00691244, 0.375484, -0.176382, -0.228324, -0.289636, 0.312098, -0.444121, -0.147572, 0.169027, 0.154622, 0.264855, -0.113056, 0.464751, -0.376217, 0.296258, -0.154073, 0.193258, -0.0597095, 0.495788, 0.200095, 0.450224, -0.175192, 0.209159, -0.0798517, -0.16863, 0.498077, 0.282037, 0.476806, 0.432463, -0.319239, 0.0601672, -0.159291, -0.150929, -0.4064, 0.389248, 0.482665, 0.177023, -0.0427107, -0.385037, 0.373257, 0.011948, -0.00749229, -0.41699, -0.0167394, 0.449583, 0.420011, -0.360866, 0.28338, 0.0856197, 0.460417, -0.370998, -0.255699, 0.0157323, -0.165517, -0.101642, 0.336726, -0.164327, -0.237053, 0.29284, -0.468657, -0.358852, -0.0335551, 0.158193, 0.298944, 0.0278176, -0.334284, 0.340114, 0.110096, 0.0914182, -0.418546, 0.184317, -0.0644093, 0.427641, -0.0655995, -0.463561, 0.246117, 0.13216, 0.445189, -0.257714, 0.0123447, -0.199271, 0.334559, -0.352474, -0.295007, -0.470977, 0.323206, -0.402188],
      [-0.138661, -0.184042, 0.24633, -0.0346538, 0.490967, -0.328791, 0.30929, -0.211631, -0.303278, 0.452757, -0.0701163, 0.0816218, -0.433439, 0.37347, 0.445982, 0.308008, -0.311609, 0.146229, -0.304529, 0.430387, 0.150075, -0.016068, 0.0162816, -0.0883663, -0.46054, -0.40054, 0.246269, -0.285333, -0.0554674, 0.205741, -0.276666, 0.302423, -0.0469222, -0.484375, 0.285394, -0.362331, -0.34695, -0.257958, 0.270287, 0.183462, -0.367672, -0.402158, -0.4841, -0.0974609, -0.0211646, 0.295984, 0.360225, 0.257866, 0.280389, -0.450774, -0.359004, 0.212333, -0.375088, -0.429411, -0.303766, 0.228813, -0.399655, 0.0729545, 0.363826, 0.270226, 0.294519, 0.269127, -0.0184484, -0.200613, 0.295343, -0.127949, 0.387417, -0.220725, -0.309351, 0.0946226, -0.0807672, -0.327265, 0.0684683, -0.350307, 0.414945, 0.442717, -0.483459, -0.249809, 0.212424, -0.448027, -0.377132, 0.109027, 0.149556, -0.0364544, 0.475311, -0.0609607, -0.435789, 0.140248, -0.338313, -0.0468612, 0.294336, 0.0449995, 0.269982, 0.364254, -0.32223, 0.140645, -0.111957, -0.114795, -0.4476, 0.390133],
      [-0.348445, 0.153584, -0.0133213, -0.381619, 0.40112, -0.303156, 0.0025483, 0.0747551, 0.0548875, -0.405881, -0.0216529, 0.253258, 0.3493, 0.206687, -0.0995972, -0.234794, -0.4794, 0.395901, 0.255089, -0.278008, 0.3052, -0.476959, 0.0286721, -0.26513, -0.060625, 0.449522, -0.292505, -0.0847652, 0.159474, -0.463408, 0.277917, -0.125629, 0.201804, -0.354366, 0.226249, -0.27636, -0.197317, 0.137959, -0.461211, 0.0743583, 0.198477, -0.125141, -0.29809, 0.0378277, 0.125507, 0.217734, -0.29809, 0.225394, -0.179922, 0.0278481, 0.0251625, -0.25164, 0.01854, -0.33346, -0.342067, 0.218131, -0.0427717, -0.00483718, 0.0865963, -0.254051, 0.372463, 0.375057, 0.297449, -0.0568102, -0.499481, -0.332545, -0.223167, -0.0788141, 0.0778069, 0.233818, -0.488922, 0.291223, 0.340632, -0.0645924, -0.0134739, 0.164663, 0.0252541, 0.133534, 0.189474, 0.152821, 0.368099, -0.31045, -0.393735, 0.367061, 0.105457, -0.0352031, 0.223258, 0.418668, 0.473632, -0.179403, -0.473296, 0.418973, 0.208975, -0.381771, -0.497009, -0.0207068, -0.452208, 0.219108, -0.361538, 0.21099],
      [-0.274895, -0.089465, 0.327784, -0.144551, -0.282189, 0.109821, -0.177786, -0.133686, 0.0992309, -0.151265, -0.461638, 0.312311, -0.339595, 0.043321, -0.482696, 0.359432, -0.307642, 0.109516, 0.300043, -0.326289, -0.0139012, -0.036607, -0.0724662, 0.421201, -0.167379, 0.020951, -0.0591296, 0.267846, 0.0229957, 0.198202, 0.381039, 0.379696, -0.151814, -0.0888241, -0.21099, 0.422788, 0.0992309, 0.0758843, 0.205863, -0.436918, 0.067156, 0.108325, 0.172597, 0.466674, -0.457091, -0.0754875, -0.269799, 0.299493, -0.182394, -0.0595264, 0.419736, -0.272393, -0.317804, 0.0722526, 0.282159, -0.0829646, 0.427763, -0.264183, -0.141499, -0.466247, -0.154775, -0.152791, 0.18984, -0.256188, 0.225669, -0.177541, -0.182882, 0.213248, 0.360073, -0.422452, -0.218589, 0.10802, -0.46057, -0.471496, -0.376339, 0.0941649, -0.445158, -0.408658, 0.384976, 0.337703, -0.302728, 0.182089, -0.393735, -0.495361, -0.242271, 0.216758, 0.328669, -0.238975, 0.0272683, 0.111347, 0.0930662, -0.227165, 0.296838, -0.218131, -0.0594348, -0.293909, -0.142506, -0.355617, 0.412168, 0.226859],
      [-0.0748466, -0.0724967, 0.0590381, -0.159749, -0.245384, 0.37347, 0.480956, 0.199179, 0.113208, 0.395871, -0.0670949, 0.448057, -0.372188, 0.246666, 0.291925, 0.0887936, 0.425443, -0.322199, -0.0651418, 0.123371, 0.132984, -0.0587024, -0.261254, 0.0537278, -0.122547, -0.210959, 0.0805536, -0.118152, 0.285791, 0.473022, -0.162862, 0.109668, 0.484924, -0.254845, 0.385556, -0.260887, 0.101794, -0.142598, -0.397336, 0.272179, 0.263421, -0.438261, -0.13451, -0.289209, -0.403317, 0.110157, 0.0509812, -0.443083, 0.228599, 0.254509, -0.463958, -0.18749, -0.21395, 0.246818, 0.197684, -0.0204932, 0.396084, -0.161, 0.412809, 0.0598926, -0.314447, 0.283044, 0.0583666, -0.444456, -0.218528, 0.330866, -0.488647, 0.468566, 0.310785, 0.234458, -0.351283, 0.300745, 0.400449, -0.254265, -0.152608, 0.0540941, -0.322626, 0.116688, -0.0156407, 0.230613, 0.268578, 0.0992615, 0.436552, -0.167806, -0.199026, -0.0546434, 0.0808893, 0.360866, 0.401517, 0.40701, 0.294366, -0.181539, -0.30285, -0.263878, -0.0460677, -0.292962, -0.185141, -0.315363, 0.436522, 0.0285195],
      [0.302881, -0.278375, -0.221213, 0.443968, -0.201895, -0.341517, 0.203787, -0.40112, -0.379879, 0.280053, 0.452635, 0.498138, -0.111927, -0.169546, -0.105518, -0.364284, 0.221122, 0.0538194, 0.398495, 0.00590533, -0.261681, 0.194327, 0.333735, 0.102771, 0.058916, -0.00392163, -0.43057, -0.0795465, 0.302026, -0.296747, 0.4747, -0.0468612, 0.0867183, 0.0599536, -0.0813471, 0.194906, -0.467803, 0.310358, 0.27047, 0.139943, 0.257622, 0.198569, 0.399258, -0.217612, 0.382076, -0.0312357, -0.325861, -0.383663, -0.47528, 0.365047, -0.0356609, -0.36401, -0.195273, -0.368435, -0.36108, 0.335475, -0.158803, -0.487518, -0.432951, -0.291131, -0.246727, 0.251976, 0.117878, 0.250389, 0.160146, -0.405942, 0.160543, -0.0458541, 0.180898, -0.217002, 0.0641652, 0.314295, 0.43469, -0.437132, -0.302118, 0.324946, 0.0406354, 0.177877, 0.430906, 0.480285, -0.382107, 0.372066, 0.132252, -0.225608, 0.285669, 0.389645, 0.171163, -0.298547, -0.337001, -0.0252846, 0.416746, 0.255608, -0.130879, 0.371487, 0.238151, -0.0690481, -0.476928, 0.324, -0.495514, -0.278314],
      [0.0171025, 0.178518, -0.152821, -0.479583, 0.361613, 0.32306, 0.281365, 0.141654, -0.0164146, 0.173072, -0.49652, 0.28718, -0.474251, -0.00291452, 0.401002, 0.476868, 0.130193, -0.442442, 0.37165, -0.274133, 0.439979, 0.124498, 0.306176, -0.447386, -0.402534, 0.465488, -0.402665, -0.0253156, 0.244484, -0.151975, 0.137366, -0.489398, -0.473912, 0.0397817, 0.319111, 0.175137, 0.0823597, 0.308313, 0.0357244, 0.488793, 0.05672, 0.420801, -0.321217, 0.46765, 0.0916929, -0.354114, 0.141317, -0.370052, 0.32993, -0.24987, -0.184211, -0.00694354, 0.413907, 0.00147993, -0.405781, 0.0745108, 0.486297, 0.167274, -0.128657, -0.106956, 0.18984, -0.484391, -0.462737, -0.0370409, -0.333778, -0.186882, -0.0140182, 0.304803, -0.440377, 0.329082, 0.108937, 0.43545, 0.0111604, -0.170583, 0.299519, 0.372432, -0.336585, -0.417423, 0.450087, -0.366848, -0.338872, 0.355342, -0.0460812, 0.235343, -0.355861, 0.416042, -0.297418, -0.303522, -0.243141, -0.467924, 0.0890288, 0.0355217, -0.359797, -0.029452, 0.00587546, -0.23394, 0.438229, -0.499869, -0.154347, -0.0905316],
      [0.489889, -0.333921, -0.446433, 0.441433, -0.377753, 0.00496791, -0.219519, -0.0239388, 0.148738, -0.0358997, -0.120821, -0.33907, 0.141373, -0.255328, 0.158624, -0.0530099, 0.172313, 0.0273211, 0.455645, -0.224469, 0.315103, 0.0171396, 0.0880505, -0.398814, 0.140291, 0.412337, -0.124572, 0.365141, -0.278654, 0.408375, 0.141959, -0.478965, -0.368635, -0.29351, -0.288357, 0.00608088, -0.0598769, 0.495605, -0.0954989, 0.276513, 0.221989, 0.480636, -0.456693, 0.275611, -0.451796, -0.144019, -0.0499493, 0.452388, 0.492165, 0.32105, -0.0514102, -0.246725, 0.123746, 0.0713064, -0.142722, -0.374357, 0.0178957, -0.198198, -0.496647, 0.0186598, 0.245474, -0.285575, 0.205392, 0.374561, 0.377473, -0.497171, -0.212189, -0.35571, 0.490369, 0.366555, -0.428796, 0.275159, 0.150859, 0.00243473, 0.379341, 0.214278, 0.434725, -0.392754, -0.46724, -0.0920225, -0.0828121, -0.122971, -0.142182, 0.303981, -0.336195, 0.0106695, -0.328366, -0.150345, 0.251688, -0.294197, -0.200476, 0.496464, -0.250407, 0.157033, -0.438533, -0.320821, -0.268687, 0.065647, -0.217926, 0.355684],
      [0.25116, -0.00256391, 0.411233, 0.27698, 0.390601, -0.369007, 0.177074, -0.484248, -0.336309, 0.241788, -0.33273, 0.117662, -0.133945, 0.255803, -0.11133, -0.255685, 0.255567, -0.458048, 0.409746, -0.452304, -0.345335, -0.469896, 0.240287, 0.194042, 0.313203, 0.129265, -0.0783941, -0.160927, 0.0184891, -0.262205, 0.483343, 0.146233, 0.0726462, 0.27112, 0.462916, 0.258603, 0.239516, 0.135622, -0.10841, -0.158421, -0.184733, 0.244736, 0.304334, 0.0680673, -0.425803, -0.0176697, -0.265798, -0.421574, -0.19143, 0.300256, -0.291445, -0.46351, 0.284016, -0.427243, 0.262513, -0.399762, 0.301394, -0.280257, -0.0587922, -0.0683829, -0.360374, 0.142721, -0.238923, 0.180431, -0.423076, -0.243968, 0.265818, -0.490503, -0.0971281, -0.0301092, 0.492414, -0.421198, -0.104834, -0.313683, -0.0524518, -0.453493, 0.33884, 0.317692, -0.311551, 0.0697551, -0.472441, -0.229392, 0.262301, 0.302177, 0.226223, 0.450724, -0.336565, -0.0921849, -0.273737, 0.268084, 0.455626, 0.0510546, -0.191823, -0.369729, -0.344067, 0.367612, -0.235388, 0.458087, -0.192894, 0.0302019],
